{"learner":{"attributes":{"scikit_learn":"{\"_estimator_type\": \"classifier\"}"},"feature_names":["rolling_win_pct_5_home","rolling_win_pct_10_home","rolling_pt_diff_5_home","rolling_pt_diff_10_home","days_rest_home","is_back_to_back_home","rolling_ortg_5_home","rolling_ortg_10_home","rolling_drtg_5_home","rolling_drtg_10_home","rolling_ts_pct_5_home","rolling_ts_pct_10_home","rolling_win_pct_5_away","rolling_win_pct_10_away","rolling_pt_diff_5_away","rolling_pt_diff_10_away","days_rest_away","is_back_to_back_away","rolling_ortg_5_away","rolling_ortg_10_away","rolling_drtg_5_away","rolling_drtg_10_away","rolling_ts_pct_5_away","rolling_ts_pct_10_away","recent_injuries_count_home","recent_injuries_count_away","has_injury_data","spread","total"],"feature_types":["float","float","float","float","float","int","float","float","float","float","float","float","float","float","float","float","float","int","float","float","float","float","float","float","float","float","int","float","float"],"gradient_booster":{"model":{"cats":{"enc":[],"feature_segments":[],"sorted_idx":[]},"gbtree_model_param":{"num_parallel_tree":"1","num_trees":"200"},"iteration_indptr":[0,1,2,3,4,5,6,7,8,9,10,11,12,13,14,15,16,17,18,19,20,21,22,23,24,25,26,27,28,29,30,31,32,33,34,35,36,37,38,39,40,41,42,43,44,45,46,47,48,49,50,51,52,53,54,55,56,57,58,59,60,61,62,63,64,65,66,67,68,69,70,71,72,73,74,75,76,77,78,79,80,81,82,83,84,85,86,87,88,89,90,91,92,93,94,95,96,97,98,99,100,101,102,103,104,105,106,107,108,109,110,111,112,113,114,115,116,117,118,119,120,121,122,123,124,125,126,127,128,129,130,131,132,133,134,135,136,137,138,139,140,141,142,143,144,145,146,147,148,149,150,151,152,153,154,155,156,157,158,159,160,161,162,163,164,165,166,167,168,169,170,171,172,173,174,175,176,177,178,179,180,181,182,183,184,185,186,187,188,189,190,191,192,193,194,195,196,197,198,199,200],"tree_info":[0,0,0,0,0,0,0,0,0,0,0,0,0,0,0,0,0,0,0,0,0,0,0,0,0,0,0,0,0,0,0,0,0,0,0,0,0,0,0,0,0,0,0,0,0,0,0,0,0,0,0,0,0,0,0,0,0,0,0,0,0,0,0,0,0,0,0,0,0,0,0,0,0,0,0,0,0,0,0,0,0,0,0,0,0,0,0,0,0,0,0,0,0,0,0,0,0,0,0,0,0,0,0,0,0,0,0,0,0,0,0,0,0,0,0,0,0,0,0,0,0,0,0,0,0,0,0,0,0,0,0,0,0,0,0,0,0,0,0,0,0,0,0,0,0,0,0,0,0,0,0,0,0,0,0,0,0,0,0,0,0,0,0,0,0,0,0,0,0,0,0,0,0,0,0,0,0,0,0,0,0,0,0,0,0,0,0,0,0,0,0,0,0,0,0,0,0,0,0,0],"trees":[{"base_weights":[-4.782807E-9,-2.3640239E-1,4.9896594E-2,3.643146E-1,-3.362515E-1,5.948889E-2,-6.78257E-2,-5.836491E-2,5.2933776E-1,-3.794283E-1,8.4483737E-1,5.052477E-2,1.283739E0,3.692407E-2,-2.007982E-2,-1.2034889E-3,-2.8075645E-2,-1.834649E-2,7.344734E-2,-2.6342375E-2,3.2998794E-3,1.2655354E-2,7.7121824E-2],"categories":[],"categories_nodes":[],"categories_segments":[],"categories_sizes":[],"default_left":[1,0,0,0,1,0,0,0,0,1,0,0,0,0,0,0,0,0,0,0,0,0,0],"id":0,"left_children":[1,3,5,7,9,11,-1,-1,13,15,17,19,21,-1,-1,-1,-1,-1,-1,-1,-1,-1,-1],"loss_changes":[1.0448861E1,9.382511E0,9.948324E0,6.3006377E0,7.09781E0,7.9183254E0,0E0,0E0,4.382262E0,8.327116E0,4.318056E0,6.495492E0,1.0084934E0,0E0,0E0,0E0,0E0,0E0,0E0,0E0,0E0,0E0,0E0],"parents":[2147483647,0,0,1,1,2,2,3,3,4,4,5,5,8,8,9,9,10,10,11,11,12,12],"right_children":[2,4,6,8,10,12,-1,-1,14,16,18,20,22,-1,-1,-1,-1,-1,-1,-1,-1,-1,-1],"split_conditions":[5.409128E-1,2E-1,1.2664992E2,2.085E2,1.2111638E2,2.08E1,-6.78257E-2,-5.836491E-2,1.1907825E2,1.05319016E2,1.0872046E2,-1.29E1,1.02E1,3.692407E-2,-2.007982E-2,-1.2034889E-3,-2.8075645E-2,-1.834649E-2,7.344734E-2,-2.6342375E-2,3.2998794E-3,1.2655354E-2,7.7121824E-2],"split_indices":[22,13,18,28,8,14,0,0,20,6,7,3,15,0,0,0,0,0,0,0,0,0,0],"split_type":[0,0,0,0,0,0,0,0,0,0,0,0,0,0,0,0,0,0,0,0,0,0,0],"sum_hessian":[8.8382135E2,1.5338222E2,7.304391E2,2.1483503E1,1.3189871E2,7.264422E2,3.9969308E0,1.498849E0,1.9984653E1,1.2790179E2,3.9969308E0,7.2219543E2,4.246739E0,1.6487339E1,3.4973145E0,4.371643E1,8.4185356E1,1.498849E0,2.4980817E0,1.7986189E1,7.042092E2,1.2490408E0,2.997698E0],"tree_param":{"num_deleted":"0","num_feature":"29","num_nodes":"23","size_leaf_vector":"1"}},{"base_weights":[-2.1548114E-5,-2.2480668E-1,4.7396924E-2,3.4415558E-1,-3.1945223E-1,5.6601904E-2,-6.527447E-2,-5.670021E-2,5.0344616E-1,-3.6092612E-1,8.134654E-1,4.7963288E-2,1.2360871E0,3.5160124E-2,-1.9309167E-2,-1.1447029E-3,-2.6714686E-2,-1.8259581E-2,7.112284E-2,4.9339016E-3,-5.9869685E-3,7.439553E-2,1.1943112E-2],"categories":[],"categories_nodes":[],"categories_segments":[],"categories_sizes":[],"default_left":[1,0,0,0,1,0,0,0,0,1,0,0,0,0,0,0,0,0,0,0,0,0,0],"id":1,"left_children":[1,3,5,7,9,11,-1,-1,13,15,17,19,21,-1,-1,-1,-1,-1,-1,-1,-1,-1,-1],"loss_changes":[9.441502E0,8.419217E0,9.183173E0,5.866045E0,6.5341644E0,7.3532047E0,0E0,0E0,4.0023203E0,7.537014E0,4.106819E0,6.1629844E0,9.6276665E-1,0E0,0E0,0E0,0E0,0E0,0E0,0E0,0E0,0E0,0E0],"parents":[2147483647,0,0,1,1,2,2,3,3,4,4,5,5,8,8,9,9,10,10,11,11,12,12],"right_children":[2,4,6,8,10,12,-1,-1,14,16,18,20,22,-1,-1,-1,-1,-1,-1,-1,-1,-1,-1],"split_conditions":[5.409128E-1,2E-1,1.2664992E2,2.085E2,1.2111638E2,2.08E1,-6.527447E-2,-5.670021E-2,1.1907825E2,1.05319016E2,5.4771405E-1,1.14260155E2,1.05819016E2,3.5160124E-2,-1.9309167E-2,-1.1447029E-3,-2.6714686E-2,-1.8259581E-2,7.112284E-2,4.9339016E-3,-5.9869685E-3,7.439553E-2,1.1943112E-2],"split_indices":[22,13,18,28,8,14,0,0,20,6,10,21,21,0,0,0,0,0,0,0,0,0,0],"split_type":[0,0,0,0,0,0,0,0,0,0,0,0,0,0,0,0,0,0,0,0,0,0,0],"sum_hessian":[8.8378046E2,1.5330484E2,7.304756E2,2.1488762E1,1.3181607E2,7.264907E2,3.9848506E0,1.4951559E0,1.9993607E1,1.2781831E2,3.9977584E0,7.222417E2,4.2490754E0,1.6498589E1,3.495018E0,4.3714962E1,8.410335E1,1.498281E0,2.4994774E0,5.548591E2,1.6738261E2,2.9995618E0,1.2495135E0],"tree_param":{"num_deleted":"0","num_feature":"29","num_nodes":"23","size_leaf_vector":"1"}},{"base_weights":[-1.8352943E-5,-2.1385007E-1,4.5052443E-2,3.2524607E-1,-3.035638E-1,5.3886205E-2,-6.2926345E-2,-5.5137224E-2,4.7908545E-1,-3.4340027E-1,7.8415203E-1,4.556062E-2,1.1920773E0,3.3501983E-2,-1.8570652E-2,5.5380245E-3,-2.3035808E-2,-1.7718753E-2,6.866172E-2,-1.5862667E-3,7.764888E-3,7.171487E-2,1.1610469E-2],"categories":[],"categories_nodes":[],"categories_segments":[],"categories_sizes":[],"default_left":[1,0,0,0,1,0,0,0,0,0,0,1,0,0,0,0,0,0,0,0,0,0,0],"id":2,"left_children":[1,3,5,7,9,11,-1,-1,13,15,17,19,21,-1,-1,-1,-1,-1,-1,-1,-1,-1,-1],"loss_changes":[8.535719E0,7.555608E0,8.491304E0,5.466776E0,6.0193214E0,6.8398023E0,0E0,0E0,3.6579313E0,6.908637E0,3.8353038E0,6.139189E0,8.86004E-1,0E0,0E0,0E0,0E0,0E0,0E0,0E0,0E0,0E0,0E0],"parents":[2147483647,0,0,1,1,2,2,3,3,4,4,5,5,8,8,9,9,10,10,11,11,12,12],"right_children":[2,4,6,8,10,12,-1,-1,14,16,18,20,22,-1,-1,-1,-1,-1,-1,-1,-1,-1,-1],"split_conditions":[5.409128E-1,2E-1,1.2664992E2,2.085E2,1.2111638E2,2.08E1,-6.2926345E-2,-5.5137224E-2,1.1907825E2,1.05319016E2,5.4771405E-1,1.1173285E2,1.05819016E2,3.3501983E-2,-1.8570652E-2,5.5380245E-3,-2.3035808E-2,-1.7718753E-2,6.866172E-2,-1.5862667E-3,7.764888E-3,7.171487E-2,1.1610469E-2],"split_indices":[22,13,18,28,8,14,0,0,20,6,10,7,21,0,0,0,0,0,0,0,0,0,0],"split_type":[0,0,0,0,0,0,0,0,0,0,0,0,0,0,0,0,0,0,0,0,0,0,0],"sum_hessian":[8.8367206E2,1.531813E2,7.304907E2,2.1480156E1,1.3170114E2,7.2652606E2,3.9646726E0,1.4891541E0,1.9991001E1,1.2770825E2,3.9928918E0,7.222828E2,4.2432895E0,1.6498854E1,3.4921482E0,2.6228117E1,1.0148013E2,1.4973576E0,2.4955342E0,4.242217E2,2.9806104E2,2.9935975E0,1.2496918E0],"tree_param":{"num_deleted":"0","num_feature":"29","num_nodes":"23","size_leaf_vector":"1"}},{"base_weights":[2.9805071E-6,-3.2377046E-2,2.7539167E-1,-1.5150411E-2,-4.8983532E-1,5.495021E-1,-2.303462E-1,-1.7106822E-1,4.53624E-2,-6.151846E-1,4.5950375E-2,-9.405048E-2,7.266579E-1,4.2293853E-1,-5.162012E-1,-1.1578861E-2,2.5074033E-2,2.333652E-2,-7.512916E-4,-1.4232895E-2,-6.3586555E-2,4.998422E-2,-3.819132E-2,4.2679384E-2,-1.4932732E-2,-4.8393983E-2,4.2605985E-2,-4.8671838E-2,-1.0502423E-2],"categories":[],"categories_nodes":[],"categories_segments":[],"categories_sizes":[],"default_left":[1,1,0,1,0,0,0,1,0,0,0,0,0,0,0,0,0,0,0,0,0,0,0,0,0,0,0,0,0],"id":3,"left_children":[1,3,5,7,9,11,13,15,17,19,-1,21,23,25,27,-1,-1,-1,-1,-1,-1,-1,-1,-1,-1,-1,-1,-1,-1],"loss_changes":[7.8961606E0,6.2366276E0,1.3041632E1,7.2219896E0,5.6377344E0,6.9901333E0,6.465084E0,8.824663E0,1.4043569E1,5.491747E0,0E0,1.1012543E1,6.4655857E0,7.230462E0,3.1158667E0,0E0,0E0,0E0,0E0,0E0,0E0,0E0,0E0,0E0,0E0,0E0,0E0,0E0,0E0],"parents":[2147483647,0,0,1,1,2,2,3,3,4,4,5,5,6,6,7,7,8,8,9,9,11,11,12,12,13,13,14,14],"right_children":[2,4,6,8,10,12,14,16,18,20,-1,22,24,26,28,-1,-1,-1,-1,-1,-1,-1,-1,-1,-1,-1,-1,-1,-1],"split_conditions":[8E-1,1.1926774E2,1.12E1,4E-1,1.21354164E2,5.4771405E-1,1.0015813E2,6.044639E-1,5.514445E-1,1.14031265E2,4.5950375E-2,7.6E0,1.1636461E2,2.14E2,5.6650335E-1,-1.1578861E-2,2.5074033E-2,2.333652E-2,-7.512916E-4,-1.4232895E-2,-6.3586555E-2,4.998422E-2,-3.819132E-2,4.2679384E-2,-1.4932732E-2,-4.8393983E-2,4.2605985E-2,-4.8671838E-2,-1.0502423E-2],"split_indices":[13,7,14,1,8,10,20,23,11,9,0,15,9,28,11,0,0,0,0,0,0,0,0,0,0,0,0,0,0],"split_type":[0,0,0,0,0,0,0,0,0,0,0,0,0,0,0,0,0,0,0,0,0,0,0,0,0,0,0,0,0],"sum_hessian":[8.835084E2,7.9134503E2,9.216341E1,7.636222E2,2.7722818E1,5.9712593E1,3.2450817E1,2.1299377E2,5.506285E2,2.5975073E1,1.747745E0,1.2990657E1,4.6721935E1,9.7314005E0,2.2719416E1,1.9601411E2,1.697965E1,6.817792E1,4.8245053E2,1.8230711E1,7.744361E0,4.746736E0,8.24392E0,4.1724136E1,4.9978013E0,1.9988114E0,7.7325892E0,8.2373905E0,1.4482025E1],"tree_param":{"num_deleted":"0","num_feature":"29","num_nodes":"29","size_leaf_vector":"1"}},{"base_weights":[-2.4525893E-5,-2.0160046E-1,4.241766E-2,3.0849913E-1,-2.8650984E-1,6.036725E-2,-5.622213E-1,-5.350516E-2,4.5677203E-1,-3.2480606E-1,7.595886E-1,2.1904606E-2,3.555651E-1,4.926321E-1,-9.632452E-1,3.3370137E-2,-1.5112387E-2,-6.0817413E-4,-2.4281153E-2,-1.7275957E-2,6.6642225E-2,-1.9210123E-4,3.1046301E-2,8.295024E-3,4.5355782E-2,-3.1489376E-2,4.3977864E-2,4.641253E-3,-5.400768E-2],"categories":[],"categories_nodes":[],"categories_segments":[],"categories_sizes":[],"default_left":[1,0,1,0,1,1,0,0,0,1,0,0,1,0,0,0,0,0,0,0,0,0,0,0,0,0,0,0,0],"id":4,"left_children":[1,3,5,7,9,11,13,-1,15,17,19,21,23,25,27,-1,-1,-1,-1,-1,-1,-1,-1,-1,-1,-1,-1,-1,-1],"loss_changes":[7.5750766E0,6.7585554E0,7.972068E0,5.07942E0,5.5566435E0,8.067657E0,9.435919E0,0E0,3.5555315E0,6.4580393E0,3.6156645E0,9.723592E0,8.419341E0,3.375473E0,2.0370827E0,0E0,0E0,0E0,0E0,0E0,0E0,0E0,0E0,0E0,0E0,0E0,0E0,0E0,0E0],"parents":[2147483647,0,0,1,1,2,2,3,3,4,4,5,5,6,6,8,8,9,9,10,10,11,11,12,12,13,13,14,14],"right_children":[2,4,6,8,10,12,14,-1,16,18,20,22,24,26,28,-1,-1,-1,-1,-1,-1,-1,-1,-1,-1,-1,-1,-1,-1],"split_conditions":[5.409128E-1,2E-1,1.2043184E2,2.085E2,1.2111638E2,8E-1,1.19151924E2,-5.350516E-2,3E0,1.05319016E2,1.0872046E2,6.2703055E-1,5.929422E-1,5.525892E-1,2.19E2,3.3370137E-2,-1.5112387E-2,-6.0817413E-4,-2.4281153E-2,-1.7275957E-2,6.6642225E-2,-1.9210123E-4,3.1046301E-2,8.295024E-3,4.5355782E-2,-3.1489376E-2,4.3977864E-2,4.641253E-3,-5.400768E-2],"split_indices":[22,13,19,28,8,13,18,0,4,6,7,22,11,11,28,0,0,0,0,0,0,0,0,0,0,0,0,0,0],"split_type":[0,0,0,0,0,0,0,0,0,0,0,0,0,0,0,0,0,0,0,0,0,0,0,0,0,0,0,0,0],"sum_hessian":[8.83423E2,1.5300192E2,7.30421E2,2.1458008E1,1.3154391E2,7.1023676E2,2.0184254E1,1.4800229E0,1.9977985E1,1.275635E2,3.980417E0,6.2931476E2,8.092202E1,5.4968653E0,1.4687389E1,1.5732785E1,4.2452E0,4.3694035E1,8.386947E1,1.4952267E0,2.4851904E0,6.043334E2,2.498136E1,6.1183365E1,1.9738659E1,1.2482324E0,4.248633E0,1.4843926E0,1.3202996E1],"tree_param":{"num_deleted":"0","num_feature":"29","num_nodes":"29","size_leaf_vector":"1"}},{"base_weights":[1.5232497E-5,6.6840593E-3,-5.967043E-2,-2.4620425E-2,2.7547958E-1,-4.4085823E-2,4.8297167E-1,6.3755316E-1,-1.5590578E-2,2.1352012E-2,-3.0901344E-3,5.4145128E-2,-3.1827444E-3,4.30382E-2,-2.156669E-2,-4.020582E-2,1.3378535E-2],"categories":[],"categories_nodes":[],"categories_segments":[],"categories_sizes":[],"default_left":[1,1,0,1,0,0,0,0,0,0,0,0,0,0,0,0,0],"id":5,"left_children":[1,3,-1,5,7,9,11,13,15,-1,-1,-1,-1,-1,-1,-1,-1],"loss_changes":[7.0451646E0,7.4139876E0,0E0,7.820766E0,9.696034E0,6.379571E0,9.656946E0,1.014912E1,1.1809173E1,0E0,0E0,0E0,0E0,0E0,0E0,0E0,0E0],"parents":[2147483647,0,0,1,1,3,3,4,4,5,5,6,6,7,7,8,8],"right_children":[2,4,-1,6,8,10,12,14,16,-1,-1,-1,-1,-1,-1,-1,-1],"split_conditions":[1.2664992E2,8E-1,-5.967043E-2,6.2703055E-1,8.7E0,9.981385E1,1.1262011E2,1.1652714E2,5.4771405E-1,2.1352012E-2,-3.0901344E-3,5.4145128E-2,-3.1827444E-3,4.30382E-2,-2.156669E-2,-4.020582E-2,1.3378535E-2],"split_indices":[18,13,0,22,15,8,21,8,10,0,0,0,0,0,0,0,0],"split_type":[0,0,0,0,0,0,0,0,0,0,0,0,0,0,0,0,0],"sum_hessian":[8.8320905E2,8.7929004E2,3.9190543E0,7.8838184E2,9.090818E1,7.601446E2,2.8237263E1,3.998228E1,5.09259E1,2.6712166E1,7.3343243E2,1.2994518E1,1.5242744E1,3.3236385E1,6.7458944E0,1.2969539E1,3.795636E1],"tree_param":{"num_deleted":"0","num_feature":"29","num_nodes":"17","size_leaf_vector":"1"}},{"base_weights":[1.7571572E-5,-1.9052805E-1,4.009312E-2,2.9145154E-1,-2.7079454E-1,5.7116136E-2,-5.352393E-1,-5.215245E-2,4.3475705E-1,-3.076313E-1,7.363164E-1,7.7860415E-2,-4.0920874E-1,4.6415594E-1,-9.1639644E-1,3.0907681E-2,-1.8772935E-2,-5.155264E-4,-2.304291E-2,-1.667643E-2,6.463527E-2,-9.217925E-4,1.1701151E-2,-5.687296E-2,-8.237044E-3,-3.016424E-2,4.161817E-2,5.2584E-3,-5.152855E-2],"categories":[],"categories_nodes":[],"categories_segments":[],"categories_sizes":[],"default_left":[1,0,1,0,1,1,0,0,0,1,0,1,0,0,0,0,0,0,0,0,0,0,0,0,0,0,0,0,0],"id":6,"left_children":[1,3,5,7,9,11,13,-1,15,17,19,21,23,25,27,-1,-1,-1,-1,-1,-1,-1,-1,-1,-1,-1,-1,-1,-1],"loss_changes":[6.758588E0,6.0289774E0,7.1925387E0,4.744595E0,5.136984E0,6.911293E0,8.467287E0,0E0,3.347772E0,5.8447037E0,3.3867013E0,1.0255774E1,5.2333956E0,3.0539508E0,1.9301367E0,0E0,0E0,0E0,0E0,0E0,0E0,0E0,0E0,0E0,0E0,0E0,0E0,0E0,0E0],"parents":[2147483647,0,0,1,1,2,2,3,3,4,4,5,5,6,6,8,8,9,9,10,10,11,11,12,12,13,13,14,14],"right_children":[2,4,6,8,10,12,14,-1,16,18,20,22,24,26,28,-1,-1,-1,-1,-1,-1,-1,-1,-1,-1,-1,-1,-1,-1],"split_conditions":[5.409128E-1,2E-1,1.2043184E2,2.085E2,1.2111638E2,1.1926774E2,1.19151924E2,-5.215245E-2,1.1907825E2,1.05319016E2,1.0872046E2,1.1173285E2,6.0559785E-1,5.525892E-1,2.19E2,3.0907681E-2,-1.8772935E-2,-5.155264E-4,-2.304291E-2,-1.667643E-2,6.463527E-2,-9.217925E-4,1.1701151E-2,-5.687296E-2,-8.237044E-3,-3.016424E-2,4.161817E-2,5.2584E-3,-5.152855E-2],"split_indices":[22,13,19,28,8,7,18,0,20,6,7,7,10,11,28,0,0,0,0,0,0,0,0,0,0,0,0,0,0],"split_type":[0,0,0,0,0,0,0,0,0,0,0,0,0,0,0,0,0,0,0,0,0,0,0,0,0,0,0,0,0],"sum_hessian":[8.830694E2,1.5280054E2,7.3026886E2,2.1438263E1,1.3136227E2,7.1015735E2,2.011151E1,1.4700698E0,1.9968193E1,1.2739706E2,3.9652212E0,6.807093E2,2.9448051E1,5.4924726E0,1.4619036E1,1.647585E1,3.4923441E0,4.3689476E1,8.370758E1,1.4936752E0,2.471546E0,4.2160953E2,2.590998E2,6.4829774E0,2.2965073E1,1.2449373E0,4.2475357E0,1.4775658E0,1.314147E1],"tree_param":{"num_deleted":"0","num_feature":"29","num_nodes":"29","size_leaf_vector":"1"}},{"base_weights":[-1.0576962E-4,6.145775E-3,-5.6634374E-2,-2.3648929E-2,2.6207325E-1,-4.229466E-2,4.6265915E-1,4.8636305E-1,-1.6906863E-1,2.0326417E-2,-2.95895E-3,6.4769216E-2,4.411332E-3,2.7846644E-2,-4.1317113E-2,-1.584885E-2,6.28176E-2],"categories":[],"categories_nodes":[],"categories_segments":[],"categories_sizes":[],"default_left":[1,1,0,1,0,0,0,0,0,0,0,0,0,0,0,0,0],"id":7,"left_children":[1,3,-1,5,7,9,11,13,15,-1,-1,-1,-1,-1,-1,-1,-1],"loss_changes":[6.264571E0,6.7159767E0,0E0,7.174757E0,8.9633665E0,5.79003E0,8.997004E0,6.080632E0,7.180765E0,0E0,0E0,0E0,0E0,0E0,0E0,0E0,0E0],"parents":[2147483647,0,0,1,1,3,3,4,4,5,5,6,6,7,7,8,8],"right_children":[2,4,-1,6,8,10,12,14,16,-1,-1,-1,-1,-1,-1,-1,-1],"split_conditions":[1.2664992E2,8E-1,-5.6634374E-2,6.2703055E-1,1.12E1,9.981385E1,1.1064773E2,1.1993206E2,2.08E1,2.0326417E-2,-2.95895E-3,6.4769216E-2,4.411332E-3,2.7846644E-2,-4.1317113E-2,-1.584885E-2,6.28176E-2],"split_indices":[18,13,0,22,14,8,21,8,14,0,0,0,0,0,0,0,0],"split_type":[0,0,0,0,0,0,0,0,0,0,0,0,0,0,0,0,0],"sum_hessian":[8.8279517E2,8.7893823E2,3.8569276E0,7.8809674E2,9.0841484E1,7.598751E2,2.8221642E1,5.9671127E1,3.1170357E1,2.6712797E1,7.3316235E2,7.9907937E0,2.0230846E1,5.7173283E1,2.4978461E0,2.894456E1,2.2257981E0],"tree_param":{"num_deleted":"0","num_feature":"29","num_nodes":"17","size_leaf_vector":"1"}},{"base_weights":[-2.8867518E-5,-1.8004395E-1,3.7783116E-2,3.335507E-1,-2.4917093E-1,5.3855494E-2,-5.081158E-1,7.7821803E-1,-5.2392614E-1,5.6732124E-1,-2.9943746E-1,7.355517E-2,-3.8944957E-1,4.3696153E-1,-8.700871E-1,-3.9344843E-2,6.177605E-2,-4.471835E-2,3.2802697E-2,7.054255E-2,-3.4242332E-2,-3.3736464E-2,-1.0655926E-2,-9.111605E-4,1.1118039E-2,-5.4531552E-2,-7.7398918E-3,-2.9375395E-2,3.960222E-2,-6.388053E-2,-2.4334446E-2],"categories":[],"categories_nodes":[],"categories_segments":[],"categories_sizes":[],"default_left":[1,0,1,0,0,1,0,0,0,0,0,1,0,0,0,0,0,0,0,0,0,0,0,0,0,0,0,0,0,0,0],"id":8,"left_children":[1,3,5,7,9,11,13,15,17,19,21,23,25,27,29,-1,-1,-1,-1,-1,-1,-1,-1,-1,-1,-1,-1,-1,-1,-1,-1],"loss_changes":[6.021281E0,5.5348635E0,6.4415326E0,7.516407E0,5.74804E0,6.238202E0,7.5654373E0,1.0047291E1,3.630912E0,9.656492E0,4.024934E0,9.31324E0,4.8349867E0,2.8234682E0,1.8033295E0,0E0,0E0,0E0,0E0,0E0,0E0,0E0,0E0,0E0,0E0,0E0,0E0,0E0,0E0,0E0,0E0],"parents":[2147483647,0,0,1,1,2,2,3,3,4,4,5,5,6,6,7,7,8,8,9,9,10,10,11,11,12,12,13,13,14,14],"right_children":[2,4,6,8,10,12,14,16,18,20,22,24,26,28,30,-1,-1,-1,-1,-1,-1,-1,-1,-1,-1,-1,-1,-1,-1,-1,-1],"split_conditions":[5.409128E-1,-1.22E1,1.2043184E2,2.27E2,9.981385E1,1.1926774E2,1.19151924E2,2.135E2,1.2056629E2,1.0708769E2,-1.08E1,1.1173285E2,6.0559785E-1,5.525892E-1,2E0,-3.9344843E-2,6.177605E-2,-4.471835E-2,3.2802697E-2,7.054255E-2,-3.4242332E-2,-3.3736464E-2,-1.0655926E-2,-9.111605E-4,1.1118039E-2,-5.4531552E-2,-7.7398918E-3,-2.9375395E-2,3.960222E-2,-6.388053E-2,-2.4334446E-2],"split_indices":[22,15,19,28,8,7,18,28,21,6,14,7,10,11,24,0,0,0,0,0,0,0,0,0,0,0,0,0,0,0,0],"split_type":[0,0,0,0,0,0,0,0,0,0,0,0,0,0,0,0,0,0,0,0,0,0,0,0,0,0,0,0,0,0,0],"sum_hessian":[8.82608E2,1.5255646E2,7.300515E2,1.7643661E1,1.349128E2,7.100476E2,2.0003902E1,1.167942E1,5.964241E0,7.2275515E0,1.2768524E2,6.8063544E2,2.9412144E1,5.482465E0,1.4521439E1,2.4779446E0,9.201476E0,4.723426E0,1.2408154E0,4.242704E0,2.9848475E0,2.2601822E1,1.0508342E2,4.2152826E2,2.5910718E2,6.460159E0,2.2951984E1,1.2426524E0,4.2398124E0,5.9086504E0,8.612788E0],"tree_param":{"num_deleted":"0","num_feature":"29","num_nodes":"31","size_leaf_vector":"1"}},{"base_weights":[-1.7603915E-4,5.6758164E-3,-5.383054E-2,-8.4509654E-4,1.1025829E0,-1.7121615E-1,3.5303414E-2,1.0339035E-2,6.6658884E-2,1.3481225E-2,-1.2231938E-2,-2.4448706E-2,2.4673666E-3],"categories":[],"categories_nodes":[],"categories_segments":[],"categories_sizes":[],"default_left":[1,1,0,1,0,0,0,0,0,0,0,0,0],"id":9,"left_children":[1,3,-1,5,7,9,11,-1,-1,-1,-1,-1,-1],"loss_changes":[5.570477E0,6.2923636E0,0E0,5.397169E0,7.9821825E-1,5.030946E0,5.3473625E0,0E0,0E0,0E0,0E0,0E0,0E0],"parents":[2147483647,0,0,1,1,3,3,4,4,5,5,6,6],"right_children":[2,4,-1,6,8,10,12,-1,-1,-1,-1,-1,-1],"split_conditions":[1.2664992E2,2.08E1,-5.383054E-2,5.409128E-1,1.02E1,2E-1,-1.29E1,1.0339035E-2,6.6658884E-2,1.3481225E-2,-1.2231938E-2,-2.4448706E-2,2.4673666E-3],"split_indices":[18,14,0,22,15,13,3,0,0,0,0,0,0],"split_type":[0,0,0,0,0,0,0,0,0,0,0,0,0],"sum_hessian":[8.8235315E2,8.7857166E2,3.781479E0,8.743729E2,4.198758E0,1.5239336E2,7.2197955E2,1.2478609E0,2.950897E0,2.1376043E1,1.3101732E2,1.7953007E1,7.0402655E2],"tree_param":{"num_deleted":"0","num_feature":"29","num_nodes":"13","size_leaf_vector":"1"}},{"base_weights":[-1.6615257E-4,5.4567712E-3,-5.225419E-2,-2.2572564E-2,2.4642445E-1,-4.031565E-2,4.4050077E-1,5.815134E-1,-2.2939557E-2,-1.2582926E-3,-2.4843965E-2,4.9805064E-2,-3.2291443E-3,4.2232297E-2,-1.4531054E-2,-3.875556E-2,1.2360512E-2],"categories":[],"categories_nodes":[],"categories_segments":[],"categories_sizes":[],"default_left":[1,1,0,1,0,1,0,0,0,0,0,0,0,0,0,0,0],"id":10,"left_children":[1,3,-1,5,7,9,11,13,15,-1,-1,-1,-1,-1,-1,-1,-1],"loss_changes":[5.194664E0,5.945318E0,0E0,6.4980125E0,8.291989E0,5.247853E0,8.255356E0,9.634009E0,1.0718975E1,0E0,0E0,0E0,0E0,0E0,0E0,0E0,0E0],"parents":[2147483647,0,0,1,1,3,3,4,4,5,5,6,6,7,7,8,8],"right_children":[2,4,-1,6,8,10,12,14,16,-1,-1,-1,-1,-1,-1,-1,-1],"split_conditions":[1.2664992E2,8E-1,-5.225419E-2,6.2703055E-1,8.7E0,1.1957471E2,1.1262011E2,2.32E2,5.4771405E-1,-1.2582926E-3,-2.4843965E-2,4.9805064E-2,-3.2291443E-3,4.2232297E-2,-1.4531054E-2,-3.875556E-2,1.2360512E-2],"split_indices":[18,13,0,22,15,7,21,28,10,0,0,0,0,0,0,0,0],"split_type":[0,0,0,0,0,0,0,0,0,0,0,0,0,0,0,0,0],"sum_hessian":[8.8215356E2,8.784213E2,3.7321944E0,7.877022E2,9.071912E1,7.595137E2,2.8188536E1,3.9910988E1,5.0808125E1,7.3614197E2,2.3371712E1,1.296008E1,1.5228456E1,3.0684622E1,9.226368E0,1.2932179E1,3.7875946E1],"tree_param":{"num_deleted":"0","num_feature":"29","num_nodes":"17","size_leaf_vector":"1"}},{"base_weights":[-1.9304329E-4,-3.0087444E-1,1.894554E-2,-1.18562385E-1,-8.0439264E-1,3.1779196E-2,-4.8155475E-1,6.682146E-1,-3.0468413E-1,-1.2346749E0,8.1848174E-2,2.3913558E-3,2.889166E-1,4.159091E-1,-8.275488E-1,-1.4702116E-2,5.1894378E-2,-7.2754264E-2,-6.0382113E-3,-6.837812E-2,-1.5761636E-2,-2.6059834E-2,3.7898637E-2,-8.3397015E-4,2.6023036E-2,5.7618013E-3,3.963039E-2,-2.7969254E-2,3.7676893E-2,7.595751E-3,-4.7000334E-2],"categories":[],"categories_nodes":[],"categories_segments":[],"categories_sizes":[],"default_left":[1,0,1,0,0,1,0,0,0,0,0,0,1,0,0,0,0,0,0,0,0,0,0,0,0,0,0,0,0,0,0],"id":11,"left_children":[1,3,5,7,9,11,13,15,17,19,21,23,25,27,29,-1,-1,-1,-1,-1,-1,-1,-1,-1,-1,-1,-1,-1,-1,-1,-1],"loss_changes":[5.086557E0,4.760219E0,5.3531766E0,6.0620246E0,5.3969927E0,6.1292086E0,6.8147426E0,3.1391022E0,6.814931E0,7.1876717E-1,2.62815E0,7.211123E0,7.186413E0,2.5499413E0,1.8362532E0,0E0,0E0,0E0,0E0,0E0,0E0,0E0,0E0,0E0,0E0,0E0,0E0,0E0,0E0,0E0,0E0],"parents":[2147483647,0,0,1,1,2,2,3,3,4,4,5,5,6,6,7,7,8,8,9,9,10,10,11,11,12,12,13,13,14,14],"right_children":[2,4,6,8,10,12,14,16,18,20,22,24,26,28,30,-1,-1,-1,-1,-1,-1,-1,-1,-1,-1,-1,-1,-1,-1,-1,-1],"split_conditions":[9.942231E1,4E0,1.2043184E2,-3.4E0,1.2016097E2,8E-1,1.19151924E2,1.0776095E2,5E-1,9.861949E1,6.5E0,6.2703055E-1,5.929422E-1,5.525892E-1,2.19E2,-1.4702116E-2,5.1894378E-2,-7.2754264E-2,-6.0382113E-3,-6.837812E-2,-1.5761636E-2,-2.6059834E-2,3.7898637E-2,-8.3397015E-4,2.6023036E-2,5.7618013E-3,3.963039E-2,-2.7969254E-2,3.7676893E-2,7.595751E-3,-4.7000334E-2],"split_indices":[18,25,19,2,21,13,18,9,1,18,27,22,11,11,28,0,0,0,0,0,0,0,0,0,0,0,0,0,0,0,0],"split_type":[0,0,0,0,0,0,0,0,0,0,0,0,0,0,0,0,0,0,0,0,0,0,0,0,0,0,0,0,0,0,0],"sum_hessian":[8.819186E2,5.1894615E1,8.300239E2,3.9006683E1,1.2887932E1,8.101859E2,1.9838003E1,6.966705E0,3.2039978E1,8.411077E0,4.4768553E0,7.279939E2,8.219201E1,5.463728E0,1.4374275E1,1.9903698E0,4.976335E0,3.4636521E0,2.8576324E1,6.923095E0,1.4879814E0,2.4874263E0,1.9894291E0,7.030805E2,2.4913437E1,6.2031403E1,2.016061E1,1.2361388E0,4.227589E0,1.4442823E0,1.2929993E1],"tree_param":{"num_deleted":"0","num_feature":"29","num_nodes":"31","size_leaf_vector":"1"}},{"base_weights":[-2.6977243E-4,3.899659E-1,-1.4777857E-2,6.8090296E-1,-5.207629E-1,-3.380957E-1,5.731466E-3,9.12064E-1,-4.0220556E-1,-9.985391E-1,3.2352157E-2,-2.3169719E-2,-7.1125644E-1,5.243086E-1,-9.000024E-3,5.34586E-2,-2.4879867E-2,-5.273014E-2,2.578942E-2,-6.387981E-2,-8.999324E-3,1.5677389E-2,-2.872684E-2,-5.7649996E-2,-8.60754E-3,4.664373E-2,-3.3384506E-2,-2.288588E-2,3.0998894E-4],"categories":[],"categories_nodes":[],"categories_segments":[],"categories_sizes":[],"default_left":[0,0,1,1,0,1,0,1,0,0,0,0,0,0,0,0,0,0,0,0,0,0,0,0,0,0,0,0,0],"id":12,"left_children":[1,3,5,7,9,11,13,15,17,19,-1,21,23,25,27,-1,-1,-1,-1,-1,-1,-1,-1,-1,-1,-1,-1,-1,-1],"loss_changes":[5.0029798E0,8.747452E0,5.6514425E0,6.4858866E0,5.241154E0,5.9578238E0,6.1326184E0,5.06044E0,3.5339885E0,1.1948824E0,0E0,5.490545E0,5.334544E0,1.142199E1,5.3293686E0,0E0,0E0,0E0,0E0,0E0,0E0,0E0,0E0,0E0,0E0,0E0,0E0,0E0,0E0],"parents":[2147483647,0,0,1,1,2,2,3,3,4,4,5,5,6,6,7,7,8,8,9,9,11,11,12,12,13,13,14,14],"right_children":[2,4,6,8,10,12,14,16,18,20,-1,22,24,26,28,-1,-1,-1,-1,-1,-1,-1,-1,-1,-1,-1,-1,-1,-1],"split_conditions":[9.981385E1,1.11333046E2,9.942231E1,6.2E0,5.6E0,-3.4E0,-1.17E1,1.14778114E2,1.1145363E2,1.0943148E2,3.2352157E-2,2.265E2,3.1E0,1.0756993E2,5.323882E-1,5.34586E-2,-2.4879867E-2,-5.273014E-2,2.578942E-2,-6.387981E-2,-8.999324E-3,1.5677389E-2,-2.872684E-2,-5.7649996E-2,-8.60754E-3,4.664373E-2,-3.3384506E-2,-2.288588E-2,3.0998894E-4],"split_indices":[8,6,18,14,14,2,15,21,19,18,0,28,3,18,23,0,0,0,0,0,0,0,0,0,0,0,0,0,0],"split_type":[0,0,0,0,0,0,0,0,0,0,0,0,0,0,0,0,0,0,0,0,0,0,0,0,0,0,0,0,0],"sum_hessian":[8.8165533E2,3.0675392E1,8.509799E2,2.3439783E1,7.2356076E0,4.9837353E1,8.011426E2,1.9447208E1,3.9925754E0,5.2376924E0,1.9979155E0,2.7603603E1,2.223375E1,2.1174318E1,7.7996826E2,1.7714457E1,1.7327518E0,2.246925E0,1.7456503E0,3.4878364E0,1.749856E0,1.740548E1,1.0198124E1,1.159449E1,1.0639259E1,1.5931179E1,5.2431383E0,2.4601032E1,7.5536725E2],"tree_param":{"num_deleted":"0","num_feature":"29","num_nodes":"29","size_leaf_vector":"1"}},{"base_weights":[-4.0393366E-4,4.938153E-3,-1.0481116E0,-1.3398742E-2,3.442422E-1,-6.704773E-2,-7.776648E-3,2.3962272E-2,-2.116408E-1,-2.62795E-1,6.608561E-1,2.378244E-3,-2.9570589E-2,-2.103905E-2,9.50852E-3,6.5157525E-2,-3.7789967E-2,5.6341257E-2,1.1184891E-2],"categories":[],"categories_nodes":[],"categories_segments":[],"categories_sizes":[],"default_left":[1,1,0,1,1,0,0,1,1,0,0,0,0,0,0,0,0,0,0],"id":13,"left_children":[1,3,5,7,9,-1,-1,11,13,15,17,-1,-1,-1,-1,-1,-1,-1,-1],"loss_changes":[4.9445214E0,5.47372E0,9.6286774E-1,6.1889205E0,8.843017E0,0E0,0E0,1.0244895E1,1.1214634E1,1.3474156E1,5.8445997E0,0E0,0E0,0E0,0E0,0E0,0E0,0E0,0E0],"parents":[2147483647,0,0,1,1,2,2,3,3,4,4,7,7,8,8,9,9,10,10],"right_children":[2,4,6,8,10,-1,-1,12,14,16,18,-1,-1,-1,-1,-1,-1,-1,-1],"split_conditions":[1.92E2,4E0,5.888609E-1,3E0,1.0920032E2,-6.704773E-2,-7.776648E-3,1.1926774E2,2.2E0,1.0633991E2,6E-1,2.378244E-3,-2.9570589E-2,-2.103905E-2,9.50852E-3,6.5157525E-2,-3.7789967E-2,5.6341257E-2,1.1184891E-2],"split_indices":[16,4,22,4,19,0,0,7,15,8,13,0,0,0,0,0,0,0,0],"split_type":[0,0,0,0,0,0,0,0,0,0,0,0,0,0,0,0,0,0,0],"sum_hessian":[8.8150745E2,8.780258E2,3.4816208E0,8.339191E2,4.4106705E1,2.2432897E0,1.2383311E0,7.024192E2,1.3149992E2,1.5177392E1,2.8929312E1,6.7736176E2,2.5057434E1,8.6453964E1,4.5045956E1,3.2406683E0,1.1936724E1,1.3239576E1,1.5689736E1],"tree_param":{"num_deleted":"0","num_feature":"29","num_nodes":"19","size_leaf_vector":"1"}},{"base_weights":[-4.0781495E-4,-5.502672E-1,9.379555E-3,7.173388E-1,-8.805466E-1,1.802011E-1,-2.8164523E-2,6.308624E-2,-1.0308358E-2,-1.1133316E0,3.494105E-2,-2.0925483E-2,3.8017023E-1,-5.20574E-1,-3.5558408E-3,-6.547787E-2,1.3690526E-2,3.388585E-2,-8.252013E-3,2.3894832E-2,-3.481424E-2,3.1037599E-2,-3.1551335E-2,-1.7372599E-3,1.3569583E-2],"categories":[],"categories_nodes":[],"categories_segments":[],"categories_sizes":[],"default_left":[0,0,0,0,0,0,0,0,0,0,0,0,0,0,1,0,0,0,0,0,0,0,0,0,0],"id":14,"left_children":[1,3,5,7,9,11,13,-1,-1,15,-1,17,19,21,23,-1,-1,-1,-1,-1,-1,-1,-1,-1,-1],"loss_changes":[4.7539244E0,7.099384E0,5.5715065E0,2.1425204E0,5.448777E0,6.3032455E0,8.630946E0,0E0,0E0,3.4773388E0,0E0,8.064372E0,8.595055E0,4.6655455E0,5.8365993E0,0E0,0E0,0E0,0E0,0E0,0E0,0E0,0E0,0E0,0E0],"parents":[2147483647,0,0,1,1,2,2,3,3,4,4,5,5,6,6,9,9,11,11,12,12,13,13,14,14],"right_children":[2,4,6,8,10,12,14,-1,-1,16,-1,18,20,22,24,-1,-1,-1,-1,-1,-1,-1,-1,-1,-1],"split_conditions":[-1.7E1,1.1417395E2,5.514445E-1,9.7202705E1,6.1566156E-1,4E-1,5.548338E-1,6.308624E-2,-1.0308358E-2,1.1706684E2,3.494105E-2,2E0,1.03E1,2E0,8E-1,-6.547787E-2,1.3690526E-2,3.388585E-2,-8.252013E-3,2.3894832E-2,-3.481424E-2,3.1037599E-2,-3.1551335E-2,-1.7372599E-3,1.3569583E-2],"split_indices":[2,9,11,6,22,1,11,0,0,20,0,4,15,27,13,0,0,0,0,0,0,0,0,0,0],"split_type":[0,0,0,0,0,0,0,0,0,0,0,0,0,0,0,0,0,0,0,0,0,0,0,0,0],"sum_hessian":[8.8139465E2,1.4448499E1,8.6694617E2,2.7442408E0,1.1704258E1,1.5552487E2,7.1142126E2,1.4960936E0,1.2481472E0,1.0457929E1,1.2463293E0,7.798441E1,7.754045E1,3.2902473E1,6.785188E2,9.210884E0,1.2470449E0,1.2702475E1,6.5281944E1,7.159657E1,5.943877E0,2.4955447E0,3.0406929E1,6.1017566E2,6.834317E1],"tree_param":{"num_deleted":"0","num_feature":"29","num_nodes":"25","size_leaf_vector":"1"}},{"base_weights":[-3.2024196E-4,4.9856426E-3,-5.0122615E-2,-1.2794113E-3,1.0643048E0,3.6307496E-1,-1.492776E-2,6.471398E-2,9.434441E-3,3.199367E-2,-2.5116956E-2,-9.49354E-3,9.6774887E-4],"categories":[],"categories_nodes":[],"categories_segments":[],"categories_sizes":[],"default_left":[1,1,0,0,0,0,1,0,0,0,0,0,0],"id":15,"left_children":[1,3,-1,5,7,9,11,-1,-1,-1,-1,-1,-1],"loss_changes":[4.6960897E0,5.8323426E0,0E0,4.35382E0,7.962351E-1,7.893961E0,5.064499E0,0E0,0E0,0E0,0E0,0E0,0E0],"parents":[2147483647,0,0,1,1,3,3,4,4,5,5,6,6],"right_children":[2,4,-1,6,8,10,12,-1,-1,-1,-1,-1,-1],"split_conditions":[1.2664992E2,2.08E1,-5.0122615E-2,9.981385E1,1.05819016E2,1.11333046E2,5.4014724E-1,6.471398E-2,9.434441E-3,3.199367E-2,-2.5116956E-2,-9.49354E-3,9.6774887E-4],"split_indices":[18,14,0,8,21,6,22,0,0,0,0,0,0],"split_type":[0,0,0,0,0,0,0,0,0,0,0,0,0],"sum_hessian":[8.81249E2,8.7759753E2,3.6515E0,8.7343066E2,4.166875E0,3.0612106E1,8.4281854E2,2.9214418E0,1.2454331E0,2.3391172E1,7.2209334E0,1.3735658E2,7.05462E2],"tree_param":{"num_deleted":"0","num_feature":"29","num_nodes":"13","size_leaf_vector":"1"}},{"base_weights":[-2.7948356E-4,4.8654834E-3,-1.0112886E0,-1.2758863E-2,3.3114448E-1,-6.47868E-2,-7.3618754E-3,2.2558456E-2,-2.0025437E-1,-2.4357672E-1,6.29941E-1,2.2509666E-3,-2.8211007E-2,3.6018886E-2,-1.4158255E-2,6.2413264E-2,-3.572684E-2,-5.545769E-4,4.6383914E-2],"categories":[],"categories_nodes":[],"categories_segments":[],"categories_sizes":[],"default_left":[1,1,0,1,1,0,0,1,0,0,0,0,0,0,0,0,0,0,0],"id":16,"left_children":[1,3,5,7,9,-1,-1,11,13,15,17,-1,-1,-1,-1,-1,-1,-1,-1],"loss_changes":[4.5929413E0,5.056391E0,9.080157E-1,5.530482E0,7.891683E0,0E0,0E0,9.292346E0,1.0308284E1,1.2228413E1,5.722104E0,0E0,0E0,0E0,0E0,0E0,0E0,0E0,0E0],"parents":[2147483647,0,0,1,1,2,2,3,3,4,4,7,7,8,8,9,9,10,10],"right_children":[2,4,6,8,10,-1,-1,12,14,16,18,-1,-1,-1,-1,-1,-1,-1,-1],"split_conditions":[1.92E2,4E0,5.888609E-1,3E0,1.0920032E2,-6.47868E-2,-7.3618754E-3,1.1926774E2,5.3663325E-1,1.0633991E2,1.0901799E2,2.2509666E-3,-2.8211007E-2,3.6018886E-2,-1.4158255E-2,6.2413264E-2,-3.572684E-2,-5.545769E-4,4.6383914E-2],"split_indices":[16,4,22,4,19,0,0,7,11,8,20,0,0,0,0,0,0,0,0],"split_type":[0,0,0,0,0,0,0,0,0,0,0,0,0,0,0,0,0,0,0],"sum_hessian":[8.8103876E2,8.7756805E2,3.4707055E0,8.335061E2,4.4061924E1,2.2352512E0,1.2354543E0,7.0213007E2,1.3137604E2,1.5135089E1,2.8926834E1,6.7713385E2,2.499624E1,1.0218812E1,1.2115723E2,3.2355363E0,1.1899552E1,9.479687E0,1.944715E1],"tree_param":{"num_deleted":"0","num_feature":"29","num_nodes":"19","size_leaf_vector":"1"}},{"base_weights":[-2.7204628E-4,1.078908E-2,-4.6111345E-1,-7.14837E-2,9.59585E-2,3.9771202E-1,-7.9322976E-1,-1.3217342E-1,1.7913364E-1,1.9251157E-1,-1.4070013E-1,-2.6344975E-2,7.1651167E-1,-1.1971445E0,-4.2047617E-1,1.7801345E-3,-1.30115105E-2,1.1771093E-2,-4.828207E-2,1.3194022E-2,-1.4295769E-2,2.9505892E-2,-1.1784043E-2,6.055491E-2,1.9766947E-3,-6.9986664E-2,-1.3485643E-2,1.5689146E-2,-3.7822336E-2],"categories":[],"categories_nodes":[],"categories_segments":[],"categories_sizes":[],"default_left":[1,1,0,1,0,0,0,0,0,0,0,0,0,0,0,0,0,0,0,0,0,0,0,0,0,0,0,0,0],"id":17,"left_children":[1,3,5,7,9,11,13,15,17,19,21,-1,23,25,27,-1,-1,-1,-1,-1,-1,-1,-1,-1,-1,-1,-1,-1,-1],"loss_changes":[4.50029E0,6.048303E0,6.2179165E0,6.702701E0,9.716958E0,2.2748938E0,1.7936974E0,7.616871E0,5.7710276E0,1.0373725E1,8.708616E0,0E0,1.6966393E0,8.965244E-1,2.5749466E0,0E0,0E0,0E0,0E0,0E0,0E0,0E0,0E0,0E0,0E0,0E0,0E0,0E0,0E0],"parents":[2147483647,0,0,1,1,2,2,3,3,4,4,5,5,6,6,7,7,8,8,9,9,10,10,12,12,13,13,14,14],"right_children":[2,4,6,8,10,12,14,16,18,20,22,-1,24,26,28,-1,-1,-1,-1,-1,-1,-1,-1,-1,-1,-1,-1,-1,-1],"split_conditions":[1.2043184E2,5.7357293E-1,1.19151924E2,1.1420315E2,7.5E0,5.525892E-1,2E0,1.0796097E2,1.76E1,1.1626925E2,5.7690895E-1,-2.6344975E-2,6.354626E-1,1.14058975E2,3E0,1.7801345E-3,-1.30115105E-2,1.1771093E-2,-4.828207E-2,1.3194022E-2,-1.4295769E-2,2.9505892E-2,-1.1784043E-2,6.055491E-2,1.9766947E-3,-6.9986664E-2,-1.3485643E-2,1.5689146E-2,-3.7822336E-2],"split_indices":[19,22,18,7,27,11,24,6,2,9,22,0,23,8,24,0,0,0,0,0,0,0,0,0,0,0,0,0,0],"split_type":[0,0,0,0,0,0,0,0,0,0,0,0,0,0,0,0,0,0,0,0,0,0,0,0,0,0,0,0,0],"sum_hessian":[8.808795E2,8.6118585E2,1.9693615E1,4.3812366E2,4.2306223E2,5.436853E0,1.42567625E1,3.5309134E2,8.50323E1,3.006061E2,1.22456116E2,1.226599E0,4.210254E0,5.7809343E0,8.475828E0,1.531547E2,1.9993665E2,8.180436E1,3.2279446E0,2.6197473E2,3.863138E1,1.3484927E1,1.0897119E2,1.9769535E0,2.2333004E0,4.3265767E0,1.4543574E0,2.681496E0,5.794332E0],"tree_param":{"num_deleted":"0","num_feature":"29","num_nodes":"29","size_leaf_vector":"1"}},{"base_weights":[-3.7713358E-4,4.586639E-3,-9.7861946E-1,-1.2808782E-2,3.0259937E-1,-6.2840044E-2,-6.927095E-3,2.0708883E-2,-1.8996193E-1,7.007914E-2,9.0455484E-1,2.1110857E-3,-2.6974667E-2,-1.9366223E-2,9.433439E-3,-1.5411252E-2,3.7372828E-2,5.4320592E-2,-1.7097987E-2],"categories":[],"categories_nodes":[],"categories_segments":[],"categories_sizes":[],"default_left":[1,0,0,0,1,0,0,1,1,1,0,0,0,0,0,0,0,0,0],"id":18,"left_children":[1,3,5,7,9,-1,-1,11,13,15,17,-1,-1,-1,-1,-1,-1,-1,-1],"loss_changes":[4.285511E0,4.556411E0,8.6713934E-1,4.9364657E0,6.7213736E0,0E0,0E0,8.452135E0,9.956789E0,9.468655E0,3.4143229E0,0E0,0E0,0E0,0E0,0E0,0E0,0E0,0E0],"parents":[2147483647,0,0,1,1,2,2,3,3,4,4,7,7,8,8,9,9,10,10],"right_children":[2,4,6,8,10,-1,-1,12,14,16,18,-1,-1,-1,-1,-1,-1,-1,-1],"split_conditions":[1.92E2,4E0,5.888609E-1,3E0,1.138751E2,-6.2840044E-2,-6.927095E-3,1.1926774E2,2.2E0,1.12674995E2,6E-1,2.1110857E-3,-2.6974667E-2,-1.9366223E-2,9.433439E-3,-1.5411252E-2,3.7372828E-2,5.4320592E-2,-1.7097987E-2],"split_indices":[16,4,22,4,21,0,0,7,15,18,13,0,0,0,0,0,0,0,0],"split_type":[0,0,0,0,0,0,0,0,0,0,0,0,0,0,0,0,0,0,0],"sum_hessian":[8.806357E2,8.7718E2,3.4556532E0,8.2970593E2,4.747408E1,2.2233613E0,1.2322922E0,6.9844257E2,1.3126338E2,3.505113E1,1.2422949E1,6.7350336E2,2.4939182E1,8.627124E1,4.4992138E1,2.2840216E1,1.2210914E1,1.0953375E1,1.469574E0],"tree_param":{"num_deleted":"0","num_feature":"29","num_nodes":"19","size_leaf_vector":"1"}},{"base_weights":[-4.1210113E-4,-5.2306426E-1,8.875078E-3,4.8164383E-2,-7.8344035E-1,1.6447064E-1,-2.5347231E-2,-1.3437625E0,-9.521123E-2,-2.4385631E-2,3.5230538E-1,-4.9536133E-1,-1.8777883E-3,-9.946096E-3,-7.7096835E-2,3.3166543E-2,-4.400422E-2,3.2194145E-2,-8.115492E-3,2.2326458E-2,-3.430377E-2,-3.9064337E-2,-9.0924633E-4,-1.5425448E-3,1.26892105E-2],"categories":[],"categories_nodes":[],"categories_segments":[],"categories_sizes":[],"default_left":[0,0,0,0,0,0,0,0,0,0,0,0,1,0,0,0,0,0,0,0,0,0,0,0,0],"id":19,"left_children":[1,3,5,-1,7,9,11,13,15,17,19,21,23,-1,-1,-1,-1,-1,-1,-1,-1,-1,-1,-1,-1],"loss_changes":[4.2831936E0,6.7169995E0,4.6210656E0,0E0,5.140176E0,5.558604E0,7.8486533E0,1.384428E0,4.8745656E0,7.381374E0,7.9871855E0,4.602642E0,5.0355964E0,0E0,0E0,0E0,0E0,0E0,0E0,0E0,0E0,0E0,0E0,0E0,0E0],"parents":[2147483647,0,0,1,1,2,2,4,4,5,5,6,6,7,7,8,8,9,9,10,10,11,11,12,12],"right_children":[2,4,6,-1,8,10,12,14,16,18,20,22,24,-1,-1,-1,-1,-1,-1,-1,-1,-1,-1,-1,-1],"split_conditions":[-1.7E1,9.467099E1,5.514445E-1,4.8164383E-2,1.0979813E2,4E-1,5.548338E-1,1.1363925E2,1.1394223E2,2E0,1.03E1,1.11623375E2,8E-1,-9.946096E-3,-7.7096835E-2,3.3166543E-2,-4.400422E-2,3.2194145E-2,-8.115492E-3,2.2326458E-2,-3.430377E-2,-3.9064337E-2,-9.0924633E-4,-1.5425448E-3,1.26892105E-2],"split_indices":[2,6,11,0,19,1,11,9,19,4,15,8,13,0,0,0,0,0,0,0,0,0,0,0,0],"split_type":[0,0,0,0,0,0,0,0,0,0,0,0,0,0,0,0,0,0,0,0,0,0,0,0,0],"sum_hessian":[8.8045514E2,1.4406094E1,8.66049E2,1.7450292E0,1.2661064E1,1.5545401E2,7.1059503E2,6.454024E0,6.2070403E0,7.795013E1,7.750388E1,3.2838737E1,6.777563E2,1.2480252E0,5.2059984E0,3.235216E0,2.9718244E0,1.2708191E1,6.5241936E1,7.157873E1,5.925154E0,2.0135927E1,1.2702812E1,6.0955707E2,6.8199234E1],"tree_param":{"num_deleted":"0","num_feature":"29","num_nodes":"25","size_leaf_vector":"1"}},{"base_weights":[-4.701396E-4,1.0235936E-2,-4.4861948E-1,-6.8399603E-3,3.9801705E-1,3.8394418E-1,-7.7063316E-1,-1.659571E-2,6.3532966E-1,7.472396E-1,-4.6208847E-2,7.838137E-1,-1.728574E-2,8.416799E-3,-8.800248E-1,-7.976797E-3,1.2632076E-3,5.5205345E-2,-2.7341625E-2,-1.1859498E-2,4.8216287E-2,-2.702917E-2,2.8900364E-2,6.0340513E-2,-1.8404237E-3,6.4364406E-3,-5.0613232E-2],"categories":[],"categories_nodes":[],"categories_segments":[],"categories_sizes":[],"default_left":[1,1,0,1,0,0,0,0,0,0,0,0,0,0,0,0,0,0,0,0,0,0,0,0,0,0,0],"id":20,"left_children":[1,3,5,7,9,11,13,15,17,19,21,23,-1,-1,25,-1,-1,-1,-1,-1,-1,-1,-1,-1,-1,-1,-1],"loss_changes":[4.232794E0,5.708472E0,5.8143635E0,5.1872663E0,5.675221E0,2.14073E0,1.7069035E0,4.8800826E0,7.4703965E0,4.591564E0,5.5416517E0,1.5876384E0,0E0,0E0,1.9648743E0,0E0,0E0,0E0,0E0,0E0,0E0,0E0,0E0,0E0,0E0,0E0,0E0],"parents":[2147483647,0,0,1,1,2,2,3,3,4,4,5,5,6,6,7,7,8,8,9,9,10,10,11,11,14,14],"right_children":[2,4,6,8,10,12,14,16,18,20,22,24,-1,-1,26,-1,-1,-1,-1,-1,-1,-1,-1,-1,-1,-1,-1],"split_conditions":[1.2043184E2,6.142638E-1,1.19151924E2,1.21498314E2,6E-1,7E0,2.19E2,4E-1,1.1444696E2,2E0,7E-1,1.2159012E2,-1.728574E-2,8.416799E-3,1.0550732E2,-7.976797E-3,1.2632076E-3,5.5205345E-2,-2.7341625E-2,-1.1859498E-2,4.8216287E-2,-2.702917E-2,2.8900364E-2,6.0340513E-2,-1.8404237E-3,6.4364406E-3,-5.0613232E-2],"split_indices":[19,23,18,18,1,27,28,1,9,16,1,19,0,0,8,0,0,0,0,0,0,0,0,0,0,0,0],"split_type":[0,0,0,0,0,0,0,0,0,0,0,0,0,0,0,0,0,0,0,0,0,0,0,0,0,0,0],"sum_hessian":[8.8025696E2,8.6067303E2,1.9583914E1,8.2531287E2,3.5360195E1,5.4083495E0,1.4175564E1,8.1392206E2,1.1390831E1,1.9415125E1,1.5945071E1,3.4457705E0,1.9625789E0,1.4229298E0,1.2752634E1,1.8372818E2,6.3019385E2,8.2037325E0,3.1870985E0,3.4911325E0,1.5923993E1,8.972722E0,6.9723487E0,1.9632124E0,1.4825581E0,1.4810927E0,1.1271542E1],"tree_param":{"num_deleted":"0","num_feature":"29","num_nodes":"27","size_leaf_vector":"1"}},{"base_weights":[-3.7470198E-4,4.4319113E-3,-9.50848E-1,-1.1491566E-3,9.1303134E-1,-7.0699877E-3,-6.102245E-2,7.189876E-3,-6.780907E-1,6.265439E-2,5.047172E-4,-5.244512E-5,3.5375483E-2,-4.757191E-2,1.7465686E-2],"categories":[],"categories_nodes":[],"categories_segments":[],"categories_sizes":[],"default_left":[1,1,0,1,0,0,0,1,0,0,0,0,0,0,0],"id":21,"left_children":[1,3,5,7,9,-1,-1,11,13,-1,-1,-1,-1,-1,-1],"loss_changes":[4.029366E0,4.4514074E0,7.958765E-1,4.9344516E0,1.6328626E0,0E0,0E0,4.9836464E0,3.3196235E0,0E0,0E0,0E0,0E0,0E0,0E0],"parents":[2147483647,0,0,1,1,2,2,3,3,4,4,7,7,8,8],"right_children":[2,4,6,8,10,-1,-1,12,14,-1,-1,-1,-1,-1,-1],"split_conditions":[1.92E2,2.08E1,5.6856894E-1,6.354626E-1,1.05819016E2,-7.0699877E-3,-6.102245E-2,6.26781E-1,9E-1,6.265439E-2,5.047172E-4,-5.244512E-5,3.5375483E-2,-4.757191E-2,1.7465686E-2],"split_indices":[16,14,10,23,21,0,0,23,13,0,0,0,0,0,0],"split_type":[0,0,0,0,0,0,0,0,0,0,0,0,0,0,0],"sum_hessian":[8.800552E2,8.766174E2,3.4377816E0,8.722583E2,4.3591075E0,1.2398229E0,2.1979587E0,8.626213E2,9.636985E0,2.884849E0,1.4742584E0,8.5357806E2,9.043255E0,7.6702156E0,1.9667692E0],"tree_param":{"num_deleted":"0","num_feature":"29","num_nodes":"15","size_leaf_vector":"1"}},{"base_weights":[-3.5630472E-4,1.249526E-1,-3.62132E-2,2.3235051E-1,-2.914513E-1,3.997789E-1,-5.3181395E-2,3.1229603E-1,-4.1392857E-1,-5.9645027E-1,2.918334E-1,6.500269E-1,-8.528011E-1,-5.260705E-1,-3.3040408E-2,1.7977199E-2,-2.724258E-2,-2.9009972E-2,4.150692E-2,-1.4625456E-3,-5.4527152E-2,2.7291426E-2,-4.4358835E-2,-2.020358E-2,5.183051E-2,-6.66455E-2,1.3549033E-2,3.151569E-2,-3.5523545E-2,3.11563E-2,-2.3035174E-3],"categories":[],"categories_nodes":[],"categories_segments":[],"categories_sizes":[],"default_left":[0,0,0,0,0,0,0,0,1,1,0,0,0,0,0,0,0,0,0,0,0,0,0,0,0,0,0,0,0,0,0],"id":22,"left_children":[1,3,5,7,9,11,13,15,17,19,21,23,25,27,29,-1,-1,-1,-1,-1,-1,-1,-1,-1,-1,-1,-1,-1,-1,-1,-1],"loss_changes":[3.962862E0,8.843105E0,5.094352E0,8.217692E0,7.410513E0,8.643261E0,6.2776413E0,5.8610344E0,4.135377E0,7.5456524E0,4.8678255E0,9.414761E0,2.9130106E0,6.190961E0,5.457834E0,0E0,0E0,0E0,0E0,0E0,0E0,0E0,0E0,0E0,0E0,0E0,0E0,0E0,0E0,0E0,0E0],"parents":[2147483647,0,0,1,1,2,2,3,3,4,4,5,5,6,6,7,7,8,8,9,9,10,10,11,11,12,12,13,13,14,14],"right_children":[2,4,6,8,10,12,14,16,18,20,22,24,26,28,30,-1,-1,-1,-1,-1,-1,-1,-1,-1,-1,-1,-1,-1,-1,-1,-1],"split_conditions":[1.060568E2,9.5E0,-1.17E1,1.1634553E2,1.0433277E2,1.0756993E2,5.3438073E-1,7E0,1.20864365E2,5.472271E-1,1.17658035E2,9.789365E1,-2E-1,5.400232E-1,5.1833427E-1,1.7977199E-2,-2.724258E-2,-2.9009972E-2,4.150692E-2,-1.4625456E-3,-5.4527152E-2,2.7291426E-2,-4.4358835E-2,-2.020358E-2,5.183051E-2,-6.66455E-2,1.3549033E-2,3.151569E-2,-3.5523545E-2,3.11563E-2,-2.3035174E-3],"split_indices":[8,27,15,21,8,18,23,25,21,23,6,18,2,11,11,0,0,0,0,0,0,0,0,0,0,0,0,0,0,0,0],"split_type":[0,0,0,0,0,0,0,0,0,0,0,0,0,0,0,0,0,0,0,0,0,0,0,0,0,0,0,0,0,0,0],"sum_hessian":[8.79964E2,1.9522556E2,6.847384E2,1.5554878E2,3.9676773E1,2.4805622E1,6.599328E2,1.3888528E2,1.6663502E1,2.603863E1,1.3638144E1,2.1075985E1,3.7296376E0,2.5933039E1,6.3399976E2,1.3217976E2,6.705514E0,1.5169685E1,1.493817E0,1.2615604E1,1.3423024E1,1.1662687E1,1.975457E0,5.643256E0,1.5432729E1,2.4828188E0,1.2468187E0,3.2340388E0,2.2699E1,1.1432941E1,6.2256683E2],"tree_param":{"num_deleted":"0","num_feature":"29","num_nodes":"31","size_leaf_vector":"1"}},{"base_weights":[-4.1846736E-4,-5.0172496E-1,8.463879E-3,4.627022E-2,-7.5307757E-1,2.727262E-1,-1.0482114E-2,-1.2928768E0,-9.331269E-2,-6.663307E-1,3.9747405E-1,-3.5824534E-1,1.5597337E-2,-1.0127449E-2,-7.4057445E-2,3.214325E-2,-4.287814E-2,-6.137603E-2,1.4010533E-2,2.8690947E-2,-2.418428E-2,-2.6664758E-2,1.1417768E-2,1.5355258E-2,-9.2311617E-4],"categories":[],"categories_nodes":[],"categories_segments":[],"categories_sizes":[],"default_left":[0,0,0,0,0,0,0,0,0,1,1,0,0,0,0,0,0,0,0,0,0,0,0,0,0],"id":23,"left_children":[1,3,5,-1,7,9,11,13,15,17,19,21,23,-1,-1,-1,-1,-1,-1,-1,-1,-1,-1,-1,-1],"loss_changes":[3.9260962E0,6.2033687E0,4.340745E0,0E0,4.7240143E0,7.059062E0,7.346565E0,1.2198801E0,4.6017284E0,4.155159E0,8.330269E0,5.924163E0,7.490973E0,0E0,0E0,0E0,0E0,0E0,0E0,0E0,0E0,0E0,0E0,0E0,0E0],"parents":[2147483647,0,0,1,1,2,2,4,4,5,5,6,6,7,7,8,8,9,9,10,10,11,11,12,12],"right_children":[2,4,6,-1,8,10,12,14,16,18,20,22,24,-1,-1,-1,-1,-1,-1,-1,-1,-1,-1,-1,-1],"split_conditions":[-1.7E1,9.467099E1,5.2765626E-1,4.627022E-2,1.0979813E2,-1.08E1,5.3959715E-1,1.1363925E2,1.1394223E2,4E-1,7.8E0,6E-1,1.0582886E2,-1.0127449E-2,-7.4057445E-2,3.214325E-2,-4.287814E-2,-6.137603E-2,1.4010533E-2,2.8690947E-2,-2.418428E-2,-2.6664758E-2,1.1417768E-2,1.5355258E-2,-9.2311617E-4],"split_indices":[2,6,10,0,19,14,10,9,19,1,15,0,6,0,0,0,0,0,0,0,0,0,0,0,0],"split_type":[0,0,0,0,0,0,0,0,0,0,0,0,0,0,0,0,0,0,0,0,0,0,0,0,0],"sum_hessian":[8.797647E2,1.4350634E1,8.6541406E2,1.7474228E0,1.2603211E1,5.699815E1,8.0841595E2,6.4040294E0,6.1991816E0,6.174831E0,5.082332E1,5.550698E1,7.5290894E2,1.2486476E0,5.155382E0,3.2384832E0,2.9606981E0,3.6901493E0,2.4846814E0,4.263887E1,8.184448E0,4.281982E1,1.26871605E1,7.7927864E1,6.749811E2],"tree_param":{"num_deleted":"0","num_feature":"29","num_nodes":"25","size_leaf_vector":"1"}},{"base_weights":[-5.070027E-4,4.2480105E-3,-9.3052155E-1,-1.5283704E-3,9.942218E-1,-5.251474E-2,-1.4395137E-2,-5.3820238E-2,7.931106E-2,7.525497E-3,6.131497E-2,-9.1553957E-4,-2.2537006E-2,-4.0541384E-3,1.2510217E-2],"categories":[],"categories_nodes":[],"categories_segments":[],"categories_sizes":[],"default_left":[1,1,0,1,0,0,0,1,0,0,0,0,0,0,0],"id":24,"left_children":[1,3,5,7,9,-1,-1,11,13,-1,-1,-1,-1,-1,-1],"loss_changes":[3.8982508E0,5.0173817E0,4.275155E-2,3.694841E0,8.1205034E-1,0E0,0E0,7.47196E0,9.430829E0,0E0,0E0,0E0,0E0,0E0,0E0],"parents":[2147483647,0,0,1,1,2,2,3,3,4,4,7,7,8,8],"right_children":[2,4,6,8,10,-1,-1,12,14,-1,-1,-1,-1,-1,-1],"split_conditions":[1.2664992E2,2.08E1,1.1553195E2,1.1173285E2,1.02E1,-5.251474E-2,-1.4395137E-2,1.10979324E2,6E-1,7.525497E-3,6.131497E-2,-9.1553957E-4,-2.2537006E-2,-4.0541384E-3,1.2510217E-2],"split_indices":[18,14,20,7,15,0,0,7,12,0,0,0,0,0,0],"split_type":[0,0,0,0,0,0,0,0,0,0,0,0,0,0,0],"sum_hessian":[8.7961835E2,8.761342E2,3.4840996E0,8.7204443E2,4.0898204E0,2.4020085E0,1.0820912E0,5.297221E2,3.423223E2,1.2379216E0,2.851899E0,4.871836E2,4.2538532E1,1.7685683E2,1.6546547E2],"tree_param":{"num_deleted":"0","num_feature":"29","num_nodes":"15","size_leaf_vector":"1"}},{"base_weights":[-4.9730926E-4,9.524886E-3,-4.2359677E-1,-6.573912E-3,3.7563753E-1,3.6873E-1,-7.3245966E-1,3.7848344E-1,-2.1318339E-2,7.0686907E-1,-4.4855148E-2,-2.5032056E-2,6.6977495E-1,-1.1334913E0,-3.6951026E-1,3.419783E-2,-1.0526567E-2,2.0394346E-2,-1.7612845E-3,4.0078606E-3,5.3180374E-2,-2.5541563E-2,2.7218668E-2,5.705298E-2,1.6264158E-3,-6.6551216E-2,-1.2359575E-2,-3.2999273E-2,2.0862661E-2],"categories":[],"categories_nodes":[],"categories_segments":[],"categories_sizes":[],"default_left":[1,1,0,0,0,0,0,0,0,0,0,0,0,0,0,0,0,0,0,0,0,0,0,0,0,0,0,0,0],"id":25,"left_children":[1,3,5,7,9,11,13,15,17,19,21,-1,23,25,27,-1,-1,-1,-1,-1,-1,-1,-1,-1,-1,-1,-1,-1,-1],"loss_changes":[3.7374403E0,5.077448E0,5.2611237E0,4.6962843E0,5.0854354E0,2.0065374E0,1.7658386E0,5.633032E0,4.767295E0,4.4658194E0,4.9260416E0,0E0,1.5158148E0,8.3468246E-1,2.4150267E0,0E0,0E0,0E0,0E0,0E0,0E0,0E0,0E0,0E0,0E0,0E0,0E0,0E0,0E0],"parents":[2147483647,0,0,1,1,2,2,3,3,4,4,5,5,6,6,7,7,8,8,9,9,10,10,12,12,13,13,14,14],"right_children":[2,4,6,8,10,12,14,16,18,20,22,-1,24,26,28,-1,-1,-1,-1,-1,-1,-1,-1,-1,-1,-1,-1,-1,-1],"split_conditions":[1.2043184E2,6.142638E-1,1.19151924E2,9.981385E1,6E-1,5.525892E-1,2E0,5.800823E-1,-1.25E1,3.4E0,7E-1,-2.5032056E-2,6.354626E-1,1.14058975E2,3.1E0,3.419783E-2,-1.0526567E-2,2.0394346E-2,-1.7612845E-3,4.0078606E-3,5.3180374E-2,-2.5541563E-2,2.7218668E-2,5.705298E-2,1.6264158E-3,-6.6551216E-2,-1.2359575E-2,-3.2999273E-2,2.0862661E-2],"split_indices":[19,23,18,8,1,11,24,10,15,14,1,0,23,8,3,0,0,0,0,0,0,0,0,0,0,0,0,0,0],"split_type":[0,0,0,0,0,0,0,0,0,0,0,0,0,0,0,0,0,0,0,0,0,0,0,0,0,0,0,0,0],"sum_hessian":[8.7944025E2,8.6004535E2,1.939489E1,8.247608E2,3.528455E1,5.385534E0,1.4009356E1,2.9506834E1,7.9525397E2,1.935619E1,1.5928357E1,1.2146891E0,4.1708446E0,5.6469274E0,8.362428E0,1.9323929E1,1.0182906E1,2.40704E1,7.711836E2,7.465544E0,1.1890647E1,8.968724E0,6.959633E0,1.9431509E0,2.2276938E0,4.2074256E0,1.4395015E0,6.225204E0,2.137224E0],"tree_param":{"num_deleted":"0","num_feature":"29","num_nodes":"29","size_leaf_vector":"1"}},{"base_weights":[-4.2355747E-4,4.1646403E-3,-9.128301E-1,-1.2276689E-2,2.862079E-1,-5.9456903E-2,-5.224832E-3,3.8162014E-3,-3.6024857E-1,-1.5916182E-1,5.680409E-1,9.4311975E-4,-1.8945092E-2,1.0782779E-2,-3.3639487E-2,5.9530675E-2,-2.4917286E-2,5.0537672E-2,7.787475E-3],"categories":[],"categories_nodes":[],"categories_segments":[],"categories_sizes":[],"default_left":[1,0,0,0,1,0,0,1,0,0,0,0,0,0,0,0,0,0,0],"id":26,"left_children":[1,3,5,7,9,-1,-1,11,13,15,17,-1,-1,-1,-1,-1,-1,-1,-1],"loss_changes":[3.6885338E0,4.069285E0,8.6038995E-1,4.6461496E0,6.1575994E0,0E0,0E0,4.5780215E0,6.7462993E0,9.527416E0,5.2859154E0,0E0,0E0,0E0,0E0,0E0,0E0,0E0,0E0],"parents":[2147483647,0,0,1,1,2,2,3,3,4,4,7,7,8,8,9,9,10,10],"right_children":[2,4,6,8,10,-1,-1,12,14,16,18,-1,-1,-1,-1,-1,-1,-1,-1],"split_conditions":[1.92E2,4E0,5.888609E-1,2.395E2,1.0920032E2,-5.9456903E-2,-5.224832E-3,1.1894092E2,1.1220135E2,1.0633991E2,6E-1,9.4311975E-4,-1.8945092E-2,1.0782779E-2,-3.3639487E-2,5.9530675E-2,-2.4917286E-2,5.0537672E-2,7.787475E-3],"split_indices":[16,4,22,28,19,0,0,21,9,8,13,0,0,0,0,0,0,0,0],"split_type":[0,0,0,0,0,0,0,0,0,0,0,0,0,0,0,0,0,0,0],"sum_hessian":[8.791879E2,8.7577936E2,3.4085758E0,8.284429E2,4.733648E1,2.1891673E0,1.2194085E0,7.9276825E2,3.5674652E1,1.8514305E1,2.8822174E1,7.63695E2,2.9073223E1,1.2658836E1,2.3015818E1,3.2140057E0,1.53003E1,1.3198387E1,1.5623786E1],"tree_param":{"num_deleted":"0","num_feature":"29","num_nodes":"19","size_leaf_vector":"1"}},{"base_weights":[-4.175142E-4,-4.8145035E-1,8.070957E-3,4.4852503E-2,-7.2581375E-1,1.5218362E-1,-2.3622017E-2,-1.2470037E0,-9.213843E-2,-3.8685646E-2,3.2301864E-1,-4.7379473E-1,-1.1720187E-3,-9.799512E-3,-7.150517E-2,3.0941186E-2,-4.166336E-2,8.0361956E-4,-5.803267E-2,-4.012028E-3,2.7175197E-2,-3.1028101E-2,1.7625507E-2,-2.8082288E-3,5.71167E-3],"categories":[],"categories_nodes":[],"categories_segments":[],"categories_sizes":[],"default_left":[0,0,0,0,0,0,0,0,0,0,0,0,1,0,0,0,0,0,0,0,0,0,0,0,0],"id":27,"left_children":[1,3,5,-1,7,9,11,13,15,17,19,21,23,-1,-1,-1,-1,-1,-1,-1,-1,-1,-1,-1,-1],"loss_changes":[3.5972378E0,5.79704E0,3.9577844E0,0E0,4.3532443E0,5.105913E0,7.180472E0,1.1329088E0,4.3017306E0,4.606124E0,7.382083E0,4.3116474E0,4.3080015E0,0E0,0E0,0E0,0E0,0E0,0E0,0E0,0E0,0E0,0E0,0E0,0E0],"parents":[2147483647,0,0,1,1,2,2,4,4,5,5,6,6,7,7,8,8,9,9,10,10,11,11,12,12],"right_children":[2,4,6,-1,8,10,12,14,16,18,20,22,24,-1,-1,-1,-1,-1,-1,-1,-1,-1,-1,-1,-1],"split_conditions":[-1.7E1,9.467099E1,5.514445E-1,4.4852503E-2,1.0979813E2,3E0,5.548338E-1,1.1363925E2,1.1394223E2,3.8E0,5.5696565E-1,1.15282E2,5.899594E-1,-9.799512E-3,-7.150517E-2,3.0941186E-2,-4.166336E-2,8.0361956E-4,-5.803267E-2,-4.012028E-3,2.7175197E-2,-3.1028101E-2,1.7625507E-2,-2.8082288E-3,5.71167E-3],"split_indices":[2,6,11,0,19,25,11,9,19,3,22,20,22,0,0,0,0,0,0,0,0,0,0,0,0],"split_type":[0,0,0,0,0,0,0,0,0,0,0,0,0,0,0,0,0,0,0,0,0,0,0,0,0],"sum_hessian":[8.7902606E2,1.4276449E1,8.6474963E2,1.7475003E0,1.2528949E1,1.5520547E2,7.095441E2,6.3435597E0,6.185389E0,7.366979E1,8.153568E1,3.2749E1,6.7679517E2,1.2483401E0,5.0952196E0,3.2411706E0,2.9442182E0,7.118143E1,2.4883602E0,2.9046612E1,5.248907E1,2.8020945E1,4.728055E0,4.5872064E2,2.1807451E2],"tree_param":{"num_deleted":"0","num_feature":"29","num_nodes":"25","size_leaf_vector":"1"}},{"base_weights":[-5.0501607E-4,2.3556173E-2,-1.6983785E-1,-2.6240498E-2,4.555334E-1,1.0509633E0,-2.5624493E-1,-5.3191923E-2,4.7739214E-1,8.939615E-1,2.6325724E-1,7.14326E-2,-1.4252569E-2,1.7125566E-1,-4.2598176E-1,-1.2111719E-3,-2.3428684E-2,1.5828198E-2,6.955792E-2,6.1510444E-2,1.9231677E-2,1.9440461E-2,-2.6385939E-2,-1.6855178E-2,3.387433E-2,-3.4928456E-2,-1.0399865E-2],"categories":[],"categories_nodes":[],"categories_segments":[],"categories_sizes":[],"default_left":[1,1,0,1,0,0,0,0,0,0,0,0,0,0,0,0,0,0,0,0,0,0,0,0,0,0,0],"id":28,"left_children":[1,3,5,7,9,11,13,15,17,19,21,-1,-1,23,25,-1,-1,-1,-1,-1,-1,-1,-1,-1,-1,-1,-1],"loss_changes":[3.5887187E0,1.6602121E1,1.1829043E1,9.42471E0,6.4892693E0,4.1612883E0,7.55749E0,7.9086924E0,4.7435665E0,3.6201859E0,5.852787E0,0E0,0E0,7.9559193E0,4.2587967E0,0E0,0E0,0E0,0E0,0E0,0E0,0E0,0E0,0E0,0E0,0E0,0E0],"parents":[2147483647,0,0,1,1,2,2,3,3,4,4,5,5,6,6,7,7,8,8,9,9,10,10,13,13,14,14],"right_children":[2,4,6,8,10,12,14,16,18,20,22,-1,-1,24,26,-1,-1,-1,-1,-1,-1,-1,-1,-1,-1,-1,-1],"split_conditions":[1.1628638E2,1.14519806E2,1.0548472E2,5.992707E-1,1.5E0,1.1957471E2,2.25E2,2.365E2,1.18E1,5.9982795E-1,1.1281035E2,7.14326E-2,-1.4252569E-2,6E-1,1.1194685E2,-1.2111719E-3,-2.3428684E-2,1.5828198E-2,6.955792E-2,6.1510444E-2,1.9231677E-2,1.9440461E-2,-2.6385939E-2,-1.6855178E-2,3.387433E-2,-3.4928456E-2,-1.0399865E-2],"split_indices":[7,7,21,11,3,7,28,28,2,10,9,0,0,12,21,0,0,0,0,0,0,0,0,0,0,0,0],"split_type":[0,0,0,0,0,0,0,0,0,0,0,0,0,0,0,0,0,0,0,0,0,0,0,0,0,0,0],"sum_hessian":[8.788258E2,7.702402E2,1.0858566E2,6.914695E2,7.877068E1,6.4396896E0,1.0214597E2,6.571947E2,3.427477E1,2.2901443E1,5.586924E1,4.9663687E0,1.4733212E0,2.9027674E1,7.31183E1,6.153396E2,4.1855118E1,3.0289993E1,3.984777E0,1.2942035E1,9.959409E0,4.86547E1,7.2145386E0,1.4650085E1,1.4377587E1,3.1510305E1,4.1607994E1],"tree_param":{"num_deleted":"0","num_feature":"29","num_nodes":"27","size_leaf_vector":"1"}},{"base_weights":[-2.9473193E-4,4.1809953E-3,-8.9400846E-1,-1.295526E-3,9.5304483E-1,-5.0783426E-2,-1.3184276E-2,3.0934624E-3,-9.1585314E-1,7.086333E-3,5.901685E-2,-1.5458601E-2,7.972781E-4,-8.718161E-3,-5.818836E-2],"categories":[],"categories_nodes":[],"categories_segments":[],"categories_sizes":[],"default_left":[1,1,0,1,0,0,0,0,0,0,0,0,0,0,0],"id":29,"left_children":[1,3,5,7,9,-1,-1,11,13,-1,-1,-1,-1,-1,-1],"loss_changes":[3.5224006E0,4.5547667E0,6.868148E-2,3.5040042E0,7.6025724E-1,0E0,0E0,3.492757E0,5.635059E-1,0E0,0E0,0E0,0E0,0E0,0E0],"parents":[2147483647,0,0,1,1,2,2,3,3,4,4,7,7,8,8],"right_children":[2,4,6,8,10,-1,-1,12,14,-1,-1,-1,-1,-1,-1],"split_conditions":[1.2664992E2,2.08E1,1.15566246E2,6.4658475E-1,1.02E1,-5.0783426E-2,-1.3184276E-2,9.942231E1,1.0664028E2,7.086333E-3,5.901685E-2,-1.5458601E-2,7.972781E-4,-8.718161E-3,-5.818836E-2],"split_indices":[18,14,21,23,15,0,0,18,20,0,0,0,0,0,0],"split_type":[0,0,0,0,0,0,0,0,0,0,0,0,0,0,0],"sum_hessian":[8.7866156E2,8.752735E2,3.3880568E0,8.7124365E2,4.029889E0,2.3274786E0,1.0605781E0,8.6807434E2,3.1692965E0,1.2372117E0,2.7926774E0,3.3404095E1,8.346702E2,1.2209275E0,1.9483689E0],"tree_param":{"num_deleted":"0","num_feature":"29","num_nodes":"15","size_leaf_vector":"1"}},{"base_weights":[-3.7120417E-4,4.0772315E-3,-8.8917977E-1,-1.1664619E-2,2.7461034E-1,-5.7959218E-2,-5.0897E-3,1.9746764E-2,-1.7780153E-1,5.7089E-2,8.387274E-1,1.997048E-3,-2.5401732E-2,3.3401094E-2,-1.2708223E-2,-1.4645964E-2,3.421151E-2,5.04868E-2,-1.6563999E-2],"categories":[],"categories_nodes":[],"categories_segments":[],"categories_sizes":[],"default_left":[1,0,0,0,1,0,0,1,0,1,0,0,0,0,0,0,0,0,0],"id":30,"left_children":[1,3,5,7,9,-1,-1,11,13,15,17,-1,-1,-1,-1,-1,-1,-1,-1],"loss_changes":[3.4810886E0,3.7344053E0,8.1415915E-1,4.3293037E0,5.868868E0,0E0,0E0,7.459836E0,8.689359E0,8.074653E0,3.0047073E0,0E0,0E0,0E0,0E0,0E0,0E0,0E0,0E0],"parents":[2147483647,0,0,1,1,2,2,3,3,4,4,7,7,8,8,9,9,10,10],"right_children":[2,4,6,8,10,-1,-1,12,14,16,18,-1,-1,-1,-1,-1,-1,-1,-1],"split_conditions":[1.92E2,4E0,5.888609E-1,3E0,1.138751E2,-5.7959218E-2,-5.0897E-3,1.1926774E2,5.3663325E-1,1.12674995E2,6E-1,1.997048E-3,-2.5401732E-2,3.3401094E-2,-1.2708223E-2,-1.4645964E-2,3.421151E-2,5.04868E-2,-1.6563999E-2],"split_indices":[16,4,22,4,21,0,0,7,11,18,13,0,0,0,0,0,0,0,0],"split_type":[0,0,0,0,0,0,0,0,0,0,0,0,0,0,0,0,0,0,0],"sum_hessian":[8.785227E2,8.7513806E2,3.3846028E0,8.2791974E2,4.7218323E1,2.1687255E0,1.2158773E0,6.970165E2,1.3090324E2,3.4872734E1,1.234559E1,6.7222003E2,2.4796446E1,1.0198044E1,1.207052E2,2.2723595E1,1.2149138E1,1.0890775E1,1.4548147E0],"tree_param":{"num_deleted":"0","num_feature":"29","num_nodes":"19","size_leaf_vector":"1"}},{"base_weights":[-3.678725E-4,-4.467397E-1,8.402436E-3,-6.1941046E-1,4.0182933E-2,5.9372485E-1,-1.0184582E-3,-1.4296606E-1,-1.232985E0,-2.3340204E-1,8.9830965E-1,3.384252E-1,-1.3711685E-2,-4.4948544E-2,2.8413236E-2,-1.3619751E-2,-7.2599664E-2,2.2762962E-2,-5.5909492E-2,1.3475562E-2,6.972877E-2,2.9212419E-2,-2.7268669E-2,2.107215E-2,-1.3408319E-3],"categories":[],"categories_nodes":[],"categories_segments":[],"categories_sizes":[],"default_left":[0,0,0,0,0,0,0,0,0,0,0,0,0,0,0,0,0,0,0,0,0,0,0,0,0],"id":31,"left_children":[1,3,5,7,-1,9,11,13,15,17,19,21,23,-1,-1,-1,-1,-1,-1,-1,-1,-1,-1,-1,-1],"loss_changes":[3.445999E0,4.1599607E0,4.761199E0,4.345669E0,0E0,3.6553187E0,3.6697693E0,5.8008842E0,9.992933E-1,3.235611E0,2.8077717E0,6.98881E0,4.6928916E0,0E0,0E0,0E0,0E0,0E0,0E0,0E0,0E0,0E0,0E0,0E0,0E0],"parents":[2147483647,0,0,1,1,2,2,3,3,5,5,6,6,7,7,8,8,9,9,10,10,11,11,12,12],"right_children":[2,4,6,8,-1,10,12,14,16,18,20,22,24,-1,-1,-1,-1,-1,-1,-1,-1,-1,-1,-1,-1],"split_conditions":[-1.41E1,6.1566156E-1,5.1833427E-1,4E0,4.0182933E-2,1.04599014E2,9.981385E1,5E-1,5.487738E-1,6E-1,9E-1,1.1215743E2,-1.25E1,-4.4948544E-2,2.8413236E-2,-1.3619751E-2,-7.2599664E-2,2.2762962E-2,-5.5909492E-2,1.3475562E-2,6.972877E-2,2.9212419E-2,-2.7268669E-2,2.107215E-2,-1.3408319E-3],"split_indices":[3,22,11,24,0,8,8,13,22,13,15,6,15,0,0,0,0,0,0,0,0,0,0,0,0],"split_type":[0,0,0,0,0,0,0,0,0,0,0,0,0,0,0,0,0,0,0,0,0,0,0,0,0],"sum_hessian":[8.78286E2,1.596176E1,8.623243E2,1.446841E1,1.4933503E0,1.2677E1,8.496473E2,8.838368E0,5.630041E0,3.4747405E0,9.20226E0,2.9701614E1,8.199456E2,4.1563735E0,4.6819944E0,1.4618783E0,4.1681633E0,2.2269144E0,1.2478261E0,4.739768E0,4.462492E0,2.3503262E1,6.1983533E0,2.3060318E1,7.968853E2],"tree_param":{"num_deleted":"0","num_feature":"29","num_nodes":"25","size_leaf_vector":"1"}},{"base_weights":[-3.401392E-4,9.090193E-3,-4.018743E-1,-6.278265E-3,3.5924995E-1,3.5217273E-1,-6.9759303E-1,-1.5495175E-2,6.042404E-1,-2.0372799E-1,5.858466E-1,7.3682725E-1,-1.7214863E-2,-1.0983281E0,-3.3995107E-1,-7.405943E-3,1.1653374E-3,5.0289642E-2,-3.0604396E-2,5.266049E-2,-2.4947328E-2,4.1772183E-2,-1.2834825E-2,5.7286303E-2,-2.1329436E-3,-6.453403E-2,-1.2012896E-2,-3.1071855E-2,2.0496527E-2],"categories":[],"categories_nodes":[],"categories_segments":[],"categories_sizes":[],"default_left":[1,1,0,1,0,0,0,0,0,0,0,0,0,0,0,0,0,0,0,0,0,0,0,0,0,0,0,0,0],"id":32,"left_children":[1,3,5,7,9,11,13,15,17,19,21,23,-1,25,27,-1,-1,-1,-1,-1,-1,-1,-1,-1,-1,-1,-1,-1,-1],"loss_changes":[3.332548E0,4.6298947E0,4.7489276E0,4.6503506E0,4.733841E0,1.9557972E0,1.7537346E0,4.189593E0,6.6188293E0,4.652911E0,5.6925735E0,1.4549427E0,0E0,7.711468E-1,2.215859E0,0E0,0E0,0E0,0E0,0E0,0E0,0E0,0E0,0E0,0E0,0E0,0E0,0E0,0E0],"parents":[2147483647,0,0,1,1,2,2,3,3,4,4,5,5,6,6,7,7,8,8,9,9,10,10,11,11,13,13,14,14],"right_children":[2,4,6,8,10,12,14,16,18,20,22,24,-1,26,28,-1,-1,-1,-1,-1,-1,-1,-1,-1,-1,-1,-1,-1,-1],"split_conditions":[1.2043184E2,6.142638E-1,1.19151924E2,1.21498314E2,1.09095665E2,7E0,2E0,4E-1,1.1573244E2,5.424479E-1,1.1832931E2,1.2159012E2,-1.7214863E-2,1.14058975E2,3.1E0,-7.405943E-3,1.1653374E-3,5.0289642E-2,-3.0604396E-2,5.266049E-2,-2.4947328E-2,4.1772183E-2,-1.2834825E-2,5.7286303E-2,-2.1329436E-3,-6.453403E-2,-1.2012896E-2,-3.1071855E-2,2.0496527E-2],"split_indices":[19,23,18,18,9,27,24,1,6,11,6,19,0,8,3,0,0,0,0,0,0,0,0,0,0,0,0,0,0],"split_type":[0,0,0,0,0,0,0,0,0,0,0,0,0,0,0,0,0,0,0,0,0,0,0,0,0,0,0,0,0],"sum_hessian":[8.7812494E2,8.589297E2,1.9195248E1,8.237572E2,3.5172504E1,5.353518E0,1.384173E1,8.124661E2,1.129106E1,1.012297E1,2.5049534E1,3.4114547E0,1.9420635E0,5.5509295E0,8.2908E0,1.8326277E2,6.2920337E2,8.618789E0,2.672272E0,1.4370315E0,8.685939E0,1.933123E1,5.718304E0,1.9294604E0,1.4819944E0,4.1226044E0,1.4283252E0,6.1525717E0,2.138229E0],"tree_param":{"num_deleted":"0","num_feature":"29","num_nodes":"29","size_leaf_vector":"1"}},{"base_weights":[-3.0032083E-4,4.0110443E-3,-8.658943E-1,-8.0155244E-4,8.097186E-1,-4.7439137E-3,-5.6824755E-2,6.559752E-3,-6.102169E-1,5.7000924E-2,-9.112987E-4,-5.2831503E-5,3.3000514E-2,1.6752226E-2,-4.4598196E-2],"categories":[],"categories_nodes":[],"categories_segments":[],"categories_sizes":[],"default_left":[1,1,0,1,0,0,0,1,0,0,0,0,0,0,0],"id":33,"left_children":[1,3,5,7,9,-1,-1,11,13,-1,-1,-1,-1,-1,-1],"loss_changes":[3.283323E0,3.39548E0,8.019166E-1,3.9127834E0,1.442678E0,0E0,0E0,4.290317E0,3.0712426E0,0E0,0E0,0E0,0E0,0E0,0E0],"parents":[2147483647,0,0,1,1,2,2,3,3,4,4,7,7,8,8],"right_children":[2,4,6,8,10,-1,-1,12,14,-1,-1,-1,-1,-1,-1],"split_conditions":[1.92E2,2.08E1,5.7499737E-1,6.354626E-1,1.05819016E2,-4.7439137E-3,-5.6824755E-2,6.26781E-1,5E-1,5.7000924E-2,-9.112987E-4,-5.2831503E-5,3.3000514E-2,1.6752226E-2,-4.4598196E-2],"split_indices":[16,14,11,23,21,0,0,23,1,0,0,0,0,0,0],"split_type":[0,0,0,0,0,0,0,0,0,0,0,0,0,0,0],"sum_hessian":[8.7787067E2,8.7451025E2,3.360409E0,8.703108E2,4.1994753E0,1.2238744E0,2.1365347E0,8.6090094E2,9.409836E0,2.732462E0,1.4670132E0,8.519691E2,8.931859E0,2.1172593E0,7.2925763E0],"tree_param":{"num_deleted":"0","num_feature":"29","num_nodes":"15","size_leaf_vector":"1"}},{"base_weights":[-2.8617927E-4,-2.9895625E-1,1.1846046E-2,-4.5037486E-2,-8.1806433E-1,-4.1056868E-1,2.1738132E-2,6.4440817E-1,-3.610674E-1,-1.1254634E0,2.0364245E-2,-7.2848804E-2,-6.3590504E-2,1.9117199E-1,-1.3721357E-2,-1.4728181E-2,5.0327975E-2,-4.6590902E-2,1.9250914E-2,-2.085063E-2,-6.60074E-2,2.2082066E-2,-3.5368677E-2,-3.649313E-3,2.1045743E-2,-5.29495E-3,4.134444E-3],"categories":[],"categories_nodes":[],"categories_segments":[],"categories_sizes":[],"default_left":[0,0,0,0,0,0,0,0,1,0,0,0,0,0,1,0,0,0,0,0,0,0,0,0,0,0,0],"id":34,"left_children":[1,3,5,7,9,11,13,15,17,19,-1,21,-1,23,25,-1,-1,-1,-1,-1,-1,-1,-1,-1,-1,-1,-1],"loss_changes":[3.1877391E0,4.48962E0,3.5415425E0,5.4878125E0,4.685264E0,5.5485888E0,4.971387E0,2.9964426E0,7.674061E0,7.234669E-1,0E0,5.206884E0,0E0,8.720918E0,6.094714E0,0E0,0E0,0E0,0E0,0E0,0E0,0E0,0E0,0E0,0E0,0E0,0E0],"parents":[2147483647,0,0,1,1,2,2,3,3,4,4,5,5,6,6,7,7,8,8,9,9,11,11,13,13,14,14],"right_children":[2,4,6,8,10,12,14,16,18,20,-1,22,-1,24,26,-1,-1,-1,-1,-1,-1,-1,-1,-1,-1,-1,-1],"split_conditions":[9.942231E1,4E0,-1.36E1,-3.4E0,1.2016097E2,2.31E2,5.514445E-1,1.0776095E2,3.1E0,1.07995964E2,2.0364245E-2,4E0,-6.3590504E-2,3E0,1.1173285E2,-1.4728181E-2,5.0327975E-2,-4.6590902E-2,1.9250914E-2,-2.085063E-2,-6.60074E-2,2.2082066E-2,-3.5368677E-2,-3.649313E-3,2.1045743E-2,-5.29495E-3,4.134444E-3],"split_indices":[18,25,3,2,21,28,11,9,3,9,0,24,0,25,7,0,0,0,0,0,0,0,0,0,0,0,0],"split_type":[0,0,0,0,0,0,0,0,0,0,0,0,0,0,0,0,0,0,0,0,0,0,0,0,0,0,0],"sum_hessian":[8.77755E2,3.334048E1,8.4441455E2,2.3118809E1,1.0221673E1,1.8395142E1,8.260194E2,6.9398575E0,1.6178951E1,8.236842E0,1.984831E0,1.3992735E1,4.402406E0,1.4219356E2,6.8382587E2,1.9835677E0,4.95629E0,9.025535E0,7.153417E0,2.4528801E0,5.7839622E0,7.8951283E0,6.097606E0,6.646009E1,7.5733475E1,3.4953635E2,3.342895E2],"tree_param":{"num_deleted":"0","num_feature":"29","num_nodes":"27","size_leaf_vector":"1"}},{"base_weights":[-4.133472E-4,2.6822957E-1,-1.4011976E-2,3.98178E-1,-9.246934E-1,-2.5216666E-1,1.6539223E-2,2.0206401E-1,1.3495045E0,6.5260218E-3,-6.820595E-2,-3.7053013E-1,3.1402817E-1,7.193863E-2,1.02917915E-2,-5.4974943E-2,1.4836537E-2,7.8446954E-2,1.1625746E-2,-2.3620266E-2,2.4399444E-2,3.8454074E-2,-4.4076208E-2,2.8543626E-3,-7.949301E-3],"categories":[],"categories_nodes":[],"categories_segments":[],"categories_sizes":[],"default_left":[0,0,0,0,0,0,0,0,0,0,0,0,0,0,0,0,0,0,0,0,0,0,0,0,0],"id":35,"left_children":[1,3,5,7,9,11,13,15,17,-1,-1,19,21,-1,23,-1,-1,-1,-1,-1,-1,-1,-1,-1,-1],"loss_changes":[3.2130795E0,6.9373455E0,6.0950203E0,6.9872227E0,2.2478259E0,6.4990773E0,6.58595E0,4.44633E0,1.2221766E0,0E0,0E0,7.160282E0,9.931453E0,0E0,5.876028E0,0E0,0E0,0E0,0E0,0E0,0E0,0E0,0E0,0E0,0E0],"parents":[2147483647,0,0,1,1,2,2,3,3,4,4,5,5,6,6,7,7,8,8,11,11,12,12,14,14],"right_children":[2,4,6,8,10,12,14,16,18,-1,-1,20,22,-1,24,-1,-1,-1,-1,-1,-1,-1,-1,-1,-1],"split_conditions":[2E-1,7.6E0,1.03904175E2,1.1511051E2,5.6944054E-1,2.285E2,1.0167702E2,2E0,1.1830781E2,6.5260218E-3,-6.820595E-2,9E-1,1.1608709E2,7.193863E-2,1.14544624E2,-5.4974943E-2,1.4836537E-2,7.8446954E-2,1.1625746E-2,-2.3620266E-2,2.4399444E-2,3.8454074E-2,-4.4076208E-2,2.8543626E-3,-7.949301E-3],"split_indices":[13,3,18,7,10,28,19,27,8,0,0,1,7,0,21,0,0,0,0,0,0,0,0,0,0],"split_type":[0,0,0,0,0,0,0,0,0,0,0,0,0,0,0,0,0,0,0,0,0,0,0,0,0],"sum_hessian":[8.775018E2,4.137658E1,8.361252E2,3.791284E1,3.4637353E0,9.424063E1,7.418846E2,3.243818E1,5.4746623E0,1.2250175E0,2.2387178E0,7.82318E1,1.6008839E1,2.241787E0,7.3964276E2,1.4796877E0,3.0958492E1,4.2375703E0,1.2370921E0,7.033528E1,7.8965125E0,1.1853755E1,4.155083E0,5.7997595E2,1.5966682E2],"tree_param":{"num_deleted":"0","num_feature":"29","num_nodes":"25","size_leaf_vector":"1"}},{"base_weights":[-3.3936076E-4,3.8313123E-3,-8.5472107E-1,-1.1769132E-3,8.905987E-1,-4.8947874E-2,-1.1841865E-2,1.3783724E-2,-2.5748295E-1,6.1951657E-3,5.5684995E-2,-6.966875E-4,1.7082483E-2,4.2513717E-2,-1.9175101E-2],"categories":[],"categories_nodes":[],"categories_segments":[],"categories_sizes":[],"default_left":[1,1,0,1,0,0,0,1,1,0,0,0,0,0,0],"id":36,"left_children":[1,3,5,7,9,-1,-1,11,13,-1,-1,-1,-1,-1,-1],"loss_changes":[3.1329343E0,3.887132E0,9.600592E-2,3.3438053E0,7.028005E-1,0E0,0E0,7.4930687E0,7.039821E0,0E0,0E0,0E0,0E0,0E0,0E0],"parents":[2147483647,0,0,1,1,2,2,3,3,4,4,7,7,8,8],"right_children":[2,4,6,8,10,-1,-1,12,14,-1,-1,-1,-1,-1,-1],"split_conditions":[1.2664992E2,2.08E1,1.1553195E2,1.2E1,1.02E1,-4.8947874E-2,-1.1841865E-2,8E-1,1.0241275E2,6.1951657E-3,5.5684995E-2,-6.966875E-4,1.7082483E-2,4.2513717E-2,-1.9175101E-2],"split_indices":[18,14,20,14,15,0,0,13,7,0,0,0,0,0,0],"split_type":[0,0,0,0,0,0,0,0,0,0,0,0,0,0,0],"sum_hessian":[8.7729224E2,8.740212E2,3.2710278E0,8.701057E2,3.915452E0,2.23689E0,1.0341377E0,8.230125E2,4.7093193E1,1.2331287E0,2.6823235E0,7.597421E2,6.3270382E1,4.223119E0,4.2870075E1],"tree_param":{"num_deleted":"0","num_feature":"29","num_nodes":"15","size_leaf_vector":"1"}},{"base_weights":[-2.7532573E-4,2.2110134E-2,-1.5803023E-1,-2.4721108E-2,4.2842364E-1,1.0113826E0,-2.406132E-1,-5.039388E-2,4.5488292E-1,8.448606E-1,2.4588495E-1,7.3769726E-2,-2.689774E-3,1.6199563E-1,-4.0060982E-1,-1.1441855E-3,-2.2269538E-2,1.5013895E-2,6.6726856E-2,4.967418E-2,-4.1597323E-3,1.6819837E-2,-3.807863E-2,-1.6197857E-2,3.2290876E-2,-3.3070434E-2,-9.610887E-3],"categories":[],"categories_nodes":[],"categories_segments":[],"categories_sizes":[],"default_left":[1,1,0,1,0,0,0,0,0,0,0,0,0,0,0,0,0,0,0,0,0,0,0,0,0,0,0],"id":37,"left_children":[1,3,5,7,9,11,13,15,17,19,21,-1,-1,23,25,-1,-1,-1,-1,-1,-1,-1,-1,-1,-1,-1,-1],"loss_changes":[3.1043897E0,1.4659398E1,1.0793045E1,8.533903E0,5.8443584E0,3.7357564E0,6.689584E0,7.1291766E0,4.389258E0,3.3726559E0,5.4322777E0,0E0,0E0,7.2529793E0,3.8883085E0,0E0,0E0,0E0,0E0,0E0,0E0,0E0,0E0,0E0,0E0,0E0,0E0],"parents":[2147483647,0,0,1,1,2,2,3,3,4,4,5,5,6,6,7,7,8,8,9,9,10,10,13,13,14,14],"right_children":[2,4,6,8,10,12,14,16,18,20,22,-1,-1,24,26,-1,-1,-1,-1,-1,-1,-1,-1,-1,-1,-1,-1],"split_conditions":[1.1628638E2,1.14519806E2,1.0548472E2,5.992707E-1,1.5E0,1.1901328E2,2.25E2,2.365E2,1.18E1,1.19055786E2,1.1344726E2,7.3769726E-2,-2.689774E-3,6E-1,1.1194685E2,-1.1441855E-3,-2.2269538E-2,1.5013895E-2,6.6726856E-2,4.967418E-2,-4.1597323E-3,1.6819837E-2,-3.807863E-2,-1.6197857E-2,3.2290876E-2,-3.3070434E-2,-9.610887E-3],"split_indices":[7,7,21,11,3,7,28,28,2,6,9,0,0,12,21,0,0,0,0,0,0,0,0,0,0,0,0],"split_type":[0,0,0,0,0,0,0,0,0,0,0,0,0,0,0,0,0,0,0,0,0,0,0,0,0,0,0],"sum_hessian":[8.7708844E2,7.688485E2,1.0823995E2,6.902323E2,7.861624E1,6.3977675E0,1.01842186E2,6.560115E2,3.4220776E1,2.2852655E1,5.5763588E1,4.1881943E0,2.209573E0,2.8958847E1,7.288334E1,6.142865E2,4.1725E1,3.024617E1,3.9746053E0,1.9637342E1,3.2153118E0,5.1777866E1,3.9857213E0,1.4612455E1,1.4346391E1,3.1405748E1,4.147759E1],"tree_param":{"num_deleted":"0","num_feature":"29","num_nodes":"27","size_leaf_vector":"1"}},{"base_weights":[-1.1591387E-4,4.0668854E-3,-8.445351E-1,-1.0883327E-2,2.6134044E-1,-5.5574752E-2,-4.21186E-3,1.8434653E-2,-1.6604374E-1,1.163588E-1,1.0787488E0,1.8590296E-3,-2.3678375E-2,-1.7427927E-2,9.201736E-3,-1.2088568E-2,3.6218733E-2,6.815591E-2,-9.3033565E-3],"categories":[],"categories_nodes":[],"categories_segments":[],"categories_sizes":[],"default_left":[1,0,0,0,1,0,0,1,1,1,0,0,0,0,0,0,0,0,0],"id":38,"left_children":[1,3,5,7,9,-1,-1,11,13,15,17,-1,-1,-1,-1,-1,-1,-1,-1],"loss_changes":[3.1039362E0,3.3663945E0,7.855563E-1,3.76701E0,5.5707426E0,0E0,0E0,6.4444785E0,8.472491E0,9.308802E0,2.81456E0,0E0,0E0,0E0,0E0,0E0,0E0,0E0,0E0],"parents":[2147483647,0,0,1,1,2,2,3,3,4,4,7,7,8,8,9,9,10,10],"right_children":[2,4,6,8,10,-1,-1,12,14,16,18,-1,-1,-1,-1,-1,-1,-1,-1],"split_conditions":[1.92E2,4E0,5.888609E-1,3E0,1.1619017E2,-5.5574752E-2,-4.21186E-3,1.1926774E2,2.2E0,1.12674995E2,5.9799796E-1,1.8590296E-3,-2.3678375E-2,-1.7427927E-2,9.201736E-3,-1.2088568E-2,3.6218733E-2,6.815591E-2,-9.3033565E-3],"split_indices":[16,4,22,4,21,0,0,7,15,18,22,0,0,0,0,0,0,0,0],"split_type":[0,0,0,0,0,0,0,0,0,0,0,0,0,0,0,0,0,0,0],"sum_hessian":[8.7682275E2,8.7349115E2,3.3316224E0,8.264251E2,4.706601E1,2.1239347E0,1.2076876E0,6.9582776E2,1.3059734E2,4.0945892E1,6.1201186E0,6.711794E2,2.46484E1,8.5845695E1,4.4751648E1,2.6147182E1,1.4798709E1,4.933252E0,1.186867E0],"tree_param":{"num_deleted":"0","num_feature":"29","num_nodes":"19","size_leaf_vector":"1"}},{"base_weights":[-1.1885408E-4,-4.4373795E-1,7.635033E-3,4.3030135E-2,-6.782976E-1,2.4192692E-1,-9.157569E-3,-8.683109E-1,3.2397438E-2,-6.184914E-1,3.555934E-1,-3.4780827E-1,1.62296E-2,2.0245837E-2,-5.4297417E-2,-5.8074214E-2,1.4165456E-2,2.6158849E-2,-2.3977509E-2,-2.3494354E-2,2.6099375E-2,1.4875675E-2,-8.338401E-4],"categories":[],"categories_nodes":[],"categories_segments":[],"categories_sizes":[],"default_left":[0,0,0,0,0,0,0,0,0,1,1,0,0,0,0,0,0,0,0,0,0,0,0],"id":39,"left_children":[1,3,5,-1,7,9,11,13,-1,15,17,19,21,-1,-1,-1,-1,-1,-1,-1,-1,-1,-1],"loss_changes":[3.021891E0,5.20093E0,3.3993025E0,0E0,3.9270062E0,5.8711987E0,6.940766E0,3.7939768E0,0E0,3.8095639E0,7.4832215E0,6.2232924E0,6.9595437E0,0E0,0E0,0E0,0E0,0E0,0E0,0E0,0E0,0E0,0E0],"parents":[2147483647,0,0,1,1,2,2,4,4,5,5,6,6,7,7,9,9,10,10,11,11,12,12],"right_children":[2,4,6,-1,8,10,12,14,-1,16,18,20,22,-1,-1,-1,-1,-1,-1,-1,-1,-1,-1],"split_conditions":[-1.7E1,9.467099E1,5.2765626E-1,4.3030135E-2,6.1566156E-1,-1.08E1,5.3959715E-1,1.13498245E2,3.2397438E-2,4E-1,7.8E0,1.1043062E2,1.0582886E2,2.0245837E-2,-5.4297417E-2,-5.8074214E-2,1.4165456E-2,2.6158849E-2,-2.3977509E-2,-2.3494354E-2,2.6099375E-2,1.4875675E-2,-8.338401E-4],"split_indices":[2,6,10,0,22,14,10,9,0,1,15,7,6,0,0,0,0,0,0,0,0,0,0],"split_type":[0,0,0,0,0,0,0,0,0,0,0,0,0,0,0,0,0,0,0,0,0,0,0],"sum_hessian":[8.7652997E2,1.4091517E1,8.624384E2,1.7410214E0,1.2350496E1,5.678348E1,8.0565497E2,1.1104784E1,1.2457126E0,6.10784E0,5.067564E1,5.529886E1,7.503561E2,1.4954653E0,9.609319E0,3.6326094E0,2.4752307E0,4.2517452E1,8.158189E0,4.889592E1,6.4029374E0,7.77456E1,6.726105E2],"tree_param":{"num_deleted":"0","num_feature":"29","num_nodes":"23","size_leaf_vector":"1"}},{"base_weights":[-9.871728E-5,8.772413E-3,-3.8132057E-1,-9.399089E-3,2.8234857E-1,3.443588E-1,-6.677251E-1,3.242497E-1,-2.2538995E-2,-5.322641E-2,3.609865E-1,7.1509176E-1,-1.6426584E-2,-1.0662587E0,-3.167826E-1,2.4174828E-2,-4.3507446E-2,1.706238E-2,-1.8954128E-3,-1.8233035E-2,2.6916957E-2,5.54379E-2,-1.6710394E-3,-1.2822263E-2,-6.355529E-2,1.7324578E-2,-3.1816434E-2],"categories":[],"categories_nodes":[],"categories_segments":[],"categories_sizes":[],"default_left":[1,1,0,0,0,0,0,0,0,0,0,0,0,0,0,0,0,0,0,0,0,0,0,0,0,0,0],"id":40,"left_children":[1,3,5,7,9,11,13,15,17,-1,19,21,-1,23,25,-1,-1,-1,-1,-1,-1,-1,-1,-1,-1,-1,-1],"loss_changes":[2.970366E0,4.2697997E0,4.38128E0,3.540303E0,6.0502377E0,1.8095587E0,1.7128706E0,6.2408333E0,4.353127E0,0E0,6.7971992E0,1.3290393E0,0E0,7.4280596E-1,2.1744428E0,0E0,0E0,0E0,0E0,0E0,0E0,0E0,0E0,0E0,0E0,0E0,0E0],"parents":[2147483647,0,0,1,1,2,2,3,3,4,4,5,5,6,6,7,7,8,8,10,10,11,11,13,13,14,14],"right_children":[2,4,6,8,10,12,14,16,18,-1,20,22,-1,24,26,-1,-1,-1,-1,-1,-1,-1,-1,-1,-1,-1,-1],"split_conditions":[1.2043184E2,1.19151924E2,1.19151924E2,9.981385E1,-1.24E1,7E0,2E0,1.1482908E2,-1.17E1,-5.322641E-2,2.5E0,1.2159012E2,-1.6426584E-2,5.7106155E-1,3E0,2.4174828E-2,-4.3507446E-2,1.706238E-2,-1.8954128E-3,-1.8233035E-2,2.6916957E-2,5.54379E-2,-1.6710394E-3,-1.2822263E-2,-6.355529E-2,1.7324578E-2,-3.1816434E-2],"split_indices":[19,18,18,8,2,27,24,6,15,0,27,19,0,11,24,0,0,0,0,0,0,0,0,0,0,0,0],"split_type":[0,0,0,0,0,0,0,0,0,0,0,0,0,0,0,0,0,0,0,0,0,0,0,0,0,0,0],"sum_hessian":[8.7633185E2,8.573579E2,1.897395E1,8.0486285E2,5.249503E1,5.3120794E0,1.3661869E1,2.9599325E1,7.7526355E2,2.2042627E0,5.0290768E1,3.3845985E0,1.9274809E0,5.4427543E0,8.219115E0,2.6642351E1,2.9569755E0,3.0566187E1,7.446973E2,9.669871E0,4.0620895E1,1.9026524E0,1.4819462E0,1.5534506E0,3.8893037E0,2.6448784E0,5.5742364E0],"tree_param":{"num_deleted":"0","num_feature":"29","num_nodes":"27","size_leaf_vector":"1"}},{"base_weights":[-2.1211179E-4,3.8302853E-3,-8.21145E-1,-1.0449684E-2,2.5010848E-1,-3.788226E-3,-5.4492485E-2,2.7156845E-2,-1.2666169E-1,1.1072472E-1,1.0394455E0,-3.8105E-3,6.247162E-3,1.2622987E-2,-1.2760735E-2,-1.1540958E-2,3.4609042E-2,6.558977E-2,-8.680615E-3],"categories":[],"categories_nodes":[],"categories_segments":[],"categories_sizes":[],"default_left":[1,0,0,0,1,0,0,0,0,1,0,0,0,0,0,0,0,0,0],"id":41,"left_children":[1,3,5,7,9,-1,-1,11,13,15,17,-1,-1,-1,-1,-1,-1,-1,-1],"loss_changes":[2.9136791E0,3.0754614E0,7.7910876E-1,3.6169379E0,5.157797E0,0E0,0E0,6.3320055E0,9.925134E0,8.47141E0,2.564701E0,0E0,0E0,0E0,0E0,0E0,0E0,0E0,0E0],"parents":[2147483647,0,0,1,1,2,2,3,3,4,4,7,7,8,8,9,9,10,10],"right_children":[2,4,6,8,10,-1,-1,12,14,16,18,-1,-1,-1,-1,-1,-1,-1,-1],"split_conditions":[1.92E2,4E0,5.6856894E-1,1.14260155E2,1.1619017E2,-3.788226E-3,-5.4492485E-2,5.7293236E-1,1.07029854E2,1.12674995E2,5.9799796E-1,-3.8105E-3,6.247162E-3,1.2622987E-2,-1.2760735E-2,-1.1540958E-2,3.4609042E-2,6.558977E-2,-8.680615E-3],"split_indices":[16,4,10,21,21,0,0,22,18,18,22,0,0,0,0,0,0,0,0],"split_type":[0,0,0,0,0,0,0,0,0,0,0,0,0,0,0,0,0,0,0],"sum_hessian":[8.7605347E2,8.727513E2,3.3022244E0,8.2582495E2,4.6926308E1,1.2146834E0,2.0875409E0,6.2450104E2,2.0132396E2,4.085268E1,6.0736265E0,3.0369522E2,3.208058E2,5.073506E1,1.505889E2,2.6115578E1,1.47371025E1,4.893554E0,1.1800725E0],"tree_param":{"num_deleted":"0","num_feature":"29","num_nodes":"19","size_leaf_vector":"1"}},{"base_weights":[-1.7351989E-4,3.7447389E-3,-8.207001E-1,-9.90836E-4,8.52987E-1,-4.7429062E-2,-1.0515488E-2,1.3516374E-2,-2.497345E-1,5.237897E-3,5.3935107E-2,-6.16739E-4,1.599333E-2,4.049738E-2,-1.8518839E-2],"categories":[],"categories_nodes":[],"categories_segments":[],"categories_sizes":[],"default_left":[1,1,0,1,0,0,0,1,1,0,0,0,0,0,0],"id":42,"left_children":[1,3,5,7,9,-1,-1,11,13,-1,-1,-1,-1,-1,-1],"loss_changes":[2.8219104E0,3.514141E0,1.2611794E-1,3.1419353E0,7.053416E-1,0E0,0E0,6.519867E0,6.4340553E0,0E0,0E0,0E0,0E0,0E0,0E0],"parents":[2147483647,0,0,1,1,2,2,3,3,4,4,7,7,8,8],"right_children":[2,4,6,8,10,-1,-1,12,14,-1,-1,-1,-1,-1,-1],"split_conditions":[1.2664992E2,2.08E1,1.15566246E2,1.2E1,1.02E1,-4.7429062E-2,-1.0515488E-2,8E-1,1.0241275E2,5.237897E-3,5.3935107E-2,-6.16739E-4,1.599333E-2,4.049738E-2,-1.8518839E-2],"split_indices":[18,14,21,14,15,0,0,13,7,0,0,0,0,0,0],"split_type":[0,0,0,0,0,0,0,0,0,0,0,0,0,0,0],"sum_hessian":[8.757671E2,8.7259564E2,3.1714678E0,8.687501E2,3.8455217E0,2.164031E0,1.0074368E0,8.217686E2,4.698147E1,1.2305276E0,2.614994E0,7.587055E2,6.306311E1,4.218032E0,4.2763435E1],"tree_param":{"num_deleted":"0","num_feature":"29","num_nodes":"15","size_leaf_vector":"1"}},{"base_weights":[-1.2008202E-4,-2.8076977E-1,1.1223152E-2,-3.8243167E-2,-7.8017765E-1,2.124149E-2,-3.5381782E-1,6.202901E-1,-3.4124792E-1,-1.0724375E0,1.8574407E-2,1.144148E-1,-2.068271E-2,-7.2820264E-1,1.3056982E-1,-1.3910954E-2,4.8316624E-2,-4.4464804E-2,1.850958E-2,-6.0170006E-2,-1.1356051E-2,8.250062E-3,-3.451289E-2,-1.2463241E-2,1.2801077E-3,-7.233344E-2,4.670013E-3,-2.677604E-2,3.2697726E-2],"categories":[],"categories_nodes":[],"categories_segments":[],"categories_sizes":[],"default_left":[0,0,0,0,0,0,1,0,1,0,0,0,0,1,0,0,0,0,0,0,0,0,0,0,0,0,0,0,0],"id":43,"left_children":[1,3,5,7,9,11,13,15,17,19,-1,21,23,25,27,-1,-1,-1,-1,-1,-1,-1,-1,-1,-1,-1,-1,-1,-1],"loss_changes":[2.793621E0,4.099166E0,3.09213E0,5.0002522E0,4.131814E0,3.212775E0,4.19109E0,2.7305315E0,6.9891067E0,7.345619E-1,0E0,1.0501974E1,6.012277E0,7.7451296E0,4.0785875E0,0E0,0E0,0E0,0E0,0E0,0E0,0E0,0E0,0E0,0E0,0E0,0E0,0E0,0E0],"parents":[2147483647,0,0,1,1,2,2,3,3,4,4,5,5,6,6,7,7,8,8,9,9,11,11,12,12,13,13,14,14],"right_children":[2,4,6,8,10,12,14,16,18,20,-1,22,24,26,28,-1,-1,-1,-1,-1,-1,-1,-1,-1,-1,-1,-1,-1,-1],"split_conditions":[9.942231E1,4E0,2.41E2,-3.4E0,1.2016097E2,-2.1E0,2.1E0,1.0776095E2,3.1E0,9.861949E1,1.8574407E-2,9.7E0,-2.4E0,1.1622241E2,1.3E0,-1.3910954E-2,4.8316624E-2,-4.4464804E-2,1.850958E-2,-6.0170006E-2,-1.1356051E-2,8.250062E-3,-3.451289E-2,-1.2463241E-2,1.2801077E-3,-7.233344E-2,4.670013E-3,-2.677604E-2,3.2697726E-2],"split_indices":[18,25,28,2,21,15,15,9,3,18,0,3,14,20,3,0,0,0,0,0,0,0,0,0,0,0,0,0,0],"split_type":[0,0,0,0,0,0,0,0,0,0,0,0,0,0,0,0,0,0,0,0,0,0,0,0,0,0,0,0,0],"sum_hessian":[8.7554846E2,3.309027E1,8.424582E2,2.299825E1,1.0092023E1,8.2087164E2,2.1586538E1,6.917348E0,1.60809E1,8.104202E0,1.9878203E0,2.542008E2,5.6667084E2,1.1891901E1,9.694636E0,1.9778359E0,4.9395123E0,8.942311E0,7.1385884E0,6.650283E0,1.4539196E0,2.3991339E2,1.4287418E1,9.4683266E1,4.7198758E2,5.9382753E0,5.9536257E0,4.255564E0,5.4390726E0],"tree_param":{"num_deleted":"0","num_feature":"29","num_nodes":"29","size_leaf_vector":"1"}},{"base_weights":[-2.85673E-4,1.06317066E-1,-3.0792436E-2,1.7023641E-1,-4.9473083E-1,1.1241575E-2,-1.7714432E-1,2.4127415E-1,-4.051623E-1,-1.1221709E0,-6.532655E-2,-7.6442994E-2,2.000496E-1,-4.825193E-1,-3.5502538E-3,1.3246517E-2,-6.0742524E-2,1.8119002E-2,-4.2330537E-2,-7.227619E-2,7.2894613E-3,8.108105E-3,-4.246405E-2,-9.53238E-3,2.6463722E-3,2.668382E-2,4.5367656E-3,1.8913744E-2,-2.9980084E-2,5.515263E-3,-3.4317505E-2],"categories":[],"categories_nodes":[],"categories_segments":[],"categories_sizes":[],"default_left":[0,0,1,0,0,0,0,0,0,1,0,0,0,0,0,0,0,0,0,0,0,0,0,0,0,0,0,0,0,0,0],"id":44,"left_children":[1,3,5,7,9,11,13,15,17,19,21,23,25,27,29,-1,-1,-1,-1,-1,-1,-1,-1,-1,-1,-1,-1,-1,-1,-1,-1],"loss_changes":[2.8531919E0,7.583817E0,4.1982455E0,7.340291E0,5.051203E0,8.804024E0,8.069777E0,5.776182E0,7.0307407E0,3.3538818E0,2.3409283E0,5.376751E0,6.1015415E0,5.787715E0,7.700755E0,0E0,0E0,0E0,0E0,0E0,0E0,0E0,0E0,0E0,0E0,0E0,0E0,0E0,0E0,0E0,0E0],"parents":[2147483647,0,0,1,1,2,2,3,3,4,4,5,5,6,6,7,7,8,8,9,9,10,10,11,11,12,12,13,13,14,14],"right_children":[2,4,6,8,10,12,14,16,18,20,22,24,26,28,30,-1,-1,-1,-1,-1,-1,-1,-1,-1,-1,-1,-1,-1,-1,-1,-1],"split_conditions":[1.060568E2,1.1740083E2,3.4E0,6E0,1.0776095E2,1.1230007E2,5.4E0,6.3754624E-1,5.584413E-1,1.15951385E2,6.017853E-1,5.760315E-1,5.852627E-1,-4E-1,9.4E0,1.3246517E-2,-6.0742524E-2,1.8119002E-2,-4.2330537E-2,-7.227619E-2,7.2894613E-3,8.108105E-3,-4.246405E-2,-9.53238E-3,2.6463722E-3,2.668382E-2,4.5367656E-3,1.8913744E-2,-2.9980084E-2,5.515263E-3,-3.4317505E-2],"split_indices":[8,21,2,25,9,7,2,11,10,19,22,22,11,3,14,0,0,0,0,0,0,0,0,0,0,0,0,0,0,0,0],"split_type":[0,0,0,0,0,0,0,0,0,0,0,0,0,0,0,0,0,0,0,0,0,0,0,0,0,0,0,0,0,0,0],"sum_hessian":[8.7533044E2,1.9420746E2,6.81123E2,1.7618732E2,1.8020142E1,5.2986316E2,1.5125984E2,1.5734274E2,1.8844582E1,6.666221E0,1.135392E1,3.6223312E2,1.6763E2,5.4176537E1,9.7083305E1,1.5563239E2,1.7103448E0,6.9462724E0,1.189831E1,5.2000704E0,1.4661509E0,9.415011E0,1.9389081E0,1.9214194E2,1.700912E2,4.041168E1,1.2721833E2,6.2195225E0,4.7957016E1,8.392708E1,1.3156222E1],"tree_param":{"num_deleted":"0","num_feature":"29","num_nodes":"31","size_leaf_vector":"1"}},{"base_weights":[-4.886481E-4,3.4403722E-3,-8.031763E-1,9.846485E-3,-5.240313E-1,-5.336236E-2,-3.4324233E-3,3.0987095E-3,5.818826E-1,2.379909E-2,-8.3936715E-1,-2.2709505E-3,3.981742E-3,4.3805372E-2,-2.7963802E-2,9.233415E-3,-5.3699102E-2],"categories":[],"categories_nodes":[],"categories_segments":[],"categories_sizes":[],"default_left":[1,1,0,1,0,0,0,1,0,0,0,0,0,0,0,0,0],"id":45,"left_children":[1,3,5,7,9,-1,-1,11,13,-1,15,-1,-1,-1,-1,-1,-1],"loss_changes":[2.7658088E0,2.9545083E0,7.553196E-1,3.3306782E0,3.7080019E0,0E0,0E0,3.1758778E0,3.8676949E0,0E0,2.201663E0,0E0,0E0,0E0,0E0,0E0,0E0],"parents":[2147483647,0,0,1,1,2,2,3,3,4,4,7,7,8,8,10,10],"right_children":[2,4,6,8,10,-1,-1,12,14,-1,16,-1,-1,-1,-1,-1,-1],"split_conditions":[1.92E2,6.354626E-1,5.888609E-1,6.26781E-1,1.0554451E2,-5.336236E-2,-3.4324233E-3,1.1173285E2,1.1674771E2,2.379909E-2,2E0,-2.2709505E-3,3.981742E-3,4.3805372E-2,-2.7963802E-2,9.233415E-3,-5.3699102E-2],"split_indices":[16,23,22,23,20,0,0,7,6,0,4,0,0,0,0,0,0],"split_type":[0,0,0,0,0,0,0,0,0,0,0,0,0,0,0,0,0],"sum_hessian":[8.751071E2,8.718354E2,3.2717726E0,8.6234357E2,9.49178E0,2.0733945E0,1.1983782E0,8.532836E2,9.059973E0,2.1533852E0,7.338395E0,5.2248004E2,3.3080356E2,7.3875155E0,1.6724575E0,1.4075737E0,5.9308214E0],"tree_param":{"num_deleted":"0","num_feature":"29","num_nodes":"17","size_leaf_vector":"1"}},{"base_weights":[-5.3527945E-4,2.4794391E-1,-1.3089548E-2,3.7017512E-1,-8.742905E-1,-2.3295793E-1,1.5049331E-2,1.8451278E-1,1.2747983E0,6.962232E-3,-6.5007366E-2,9.035748E-1,-2.859872E-1,6.909412E-2,9.028233E-3,2.7679015E-2,-6.5552304E-3,7.444562E-2,9.964965E-3,1.0317302E-2,6.364351E-2,-2.0355908E-2,1.3916912E-2,2.2929148E-3,-8.316155E-3],"categories":[],"categories_nodes":[],"categories_segments":[],"categories_sizes":[],"default_left":[0,0,0,0,0,0,0,0,0,0,0,0,0,0,1,0,0,0,0,0,0,0,0,0,0],"id":46,"left_children":[1,3,5,7,9,11,13,15,17,-1,-1,19,21,-1,23,-1,-1,-1,-1,-1,-1,-1,-1,-1,-1],"loss_changes":[2.7358687E0,6.1096067E0,5.168338E0,6.27133E0,2.0976098E0,5.9706297E0,6.0860806E0,3.952924E0,1.1834297E0,0E0,0E0,8.871405E-1,6.3551836E0,0E0,4.778859E0,0E0,0E0,0E0,0E0,0E0,0E0,0E0,0E0,0E0,0E0],"parents":[2147483647,0,0,1,1,2,2,3,3,4,4,5,5,6,6,7,7,8,8,11,11,12,12,14,14],"right_children":[2,4,6,8,10,12,14,16,18,-1,-1,20,22,-1,24,-1,-1,-1,-1,-1,-1,-1,-1,-1,-1],"split_conditions":[2E-1,7.6E0,1.03904175E2,1.1511051E2,5.6944054E-1,1.5E0,1.0167702E2,1.0850573E2,1.1830781E2,6.962232E-3,-6.5007366E-2,-1.8E0,2.285E2,6.909412E-2,1.14544624E2,2.7679015E-2,-6.5552304E-3,7.444562E-2,9.964965E-3,1.0317302E-2,6.364351E-2,-2.0355908E-2,1.3916912E-2,2.2929148E-3,-8.316155E-3],"split_indices":[13,3,18,7,10,27,19,8,8,0,0,2,28,0,21,0,0,0,0,0,0,0,0,0,0],"split_type":[0,0,0,0,0,0,0,0,0,0,0,0,0,0,0,0,0,0,0,0,0,0,0,0,0],"sum_hessian":[8.749884E2,4.118035E1,8.3380804E2,3.773995E1,3.4404042E0,9.3777916E1,7.400301E2,3.231224E1,5.4277077E0,1.216994E0,2.2234101E0,3.4655023E0,9.0312416E1,2.243452E0,7.377867E2,1.4547337E1,1.7764904E1,4.2059755E0,1.2217319E0,1.7397032E0,1.7257991E0,7.458214E1,1.5730279E1,6.1033325E2,1.27453384E2],"tree_param":{"num_deleted":"0","num_feature":"29","num_nodes":"25","size_leaf_vector":"1"}},{"base_weights":[-3.063853E-4,7.3925704E-3,-3.9861286E-1,-2.182916E-3,4.49214E-1,3.760346E-1,-7.0131403E-1,-7.41429E-3,7.201425E-1,7.428231E-1,-3.478177E-1,4.1962743E-2,-1.22159585E-1,5.362287E-2,-9.2308056E-1,-2.6825108E-3,3.316902E-3,5.2658685E-2,-1.6475638E-2,-3.150453E-2,4.655354E-2,2.439691E-2,-4.2201348E-2,6.5349895E-3,-1.5894594E-2,2.7649963E-2,-2.5535548E-2,-4.2993203E-3,-5.1676966E-2],"categories":[],"categories_nodes":[],"categories_segments":[],"categories_sizes":[],"default_left":[1,1,0,1,0,0,0,1,0,0,0,0,0,0,0,0,0,0,0,0,0,0,0,0,0,0,0,0,0],"id":47,"left_children":[1,3,5,7,9,11,13,15,17,19,21,-1,23,25,27,-1,-1,-1,-1,-1,-1,-1,-1,-1,-1,-1,-1,-1,-1],"loss_changes":[2.6884239E0,3.639808E0,4.161938E0,3.1902976E0,4.529236E0,1.330682E0,2.10919E0,2.8604243E0,2.4691308E0,4.1160545E0,2.731813E0,0E0,2.1165985E-1,1.3359799E0,7.954664E-1,0E0,0E0,0E0,0E0,0E0,0E0,0E0,0E0,0E0,0E0,0E0,0E0,0E0,0E0],"parents":[2147483647,0,0,1,1,2,2,3,3,4,4,5,5,6,6,7,7,8,8,9,9,10,10,12,12,13,13,14,14],"right_children":[2,4,6,8,10,12,14,16,18,20,22,-1,24,26,28,-1,-1,-1,-1,-1,-1,-1,-1,-1,-1,-1,-1,-1,-1],"split_conditions":[1.2066128E2,1.21498314E2,1.1881346E2,6.26781E-1,1.1657877E2,6.32616E-1,2.225E2,1.1173285E2,1.141564E2,-9.5E0,1.2293962E2,4.1962743E-2,2E0,1.66E1,1.0550732E2,-2.6825108E-3,3.316902E-3,5.2658685E-2,-1.6475638E-2,-3.150453E-2,4.655354E-2,2.439691E-2,-4.2201348E-2,6.5349895E-3,-1.5894594E-2,2.7649963E-2,-2.5535548E-2,-4.2993203E-3,-5.1676966E-2],"split_indices":[19,18,18,23,6,23,28,7,6,3,18,0,27,14,8,0,0,0,0,0,0,0,0,0,0,0,0,0,0],"split_type":[0,0,0,0,0,0,0,0,0,0,0,0,0,0,0,0,0,0,0,0,0,0,0,0,0,0,0,0,0],"sum_hessian":[8.747341E2,8.591096E2,1.5624483E1,8.4185925E2,1.7250347E1,4.3219213E0,1.1302562E1,8.3678864E2,5.070628E0,1.2656121E1,4.594226E0,1.8848221E0,2.437099E0,2.738471E0,8.564091E0,5.145105E2,3.2227814E2,3.8467817E0,1.2238463E0,1.2430766E0,1.1413045E1,1.7177389E0,2.8764868E0,1.2083404E0,1.2287585E0,1.4635061E0,1.2749648E0,1.2056563E0,7.3584347E0],"tree_param":{"num_deleted":"0","num_feature":"29","num_nodes":"29","size_leaf_vector":"1"}},{"base_weights":[-2.7807106E-4,2.0561893E-2,-1.4753547E-1,-2.2892384E-2,3.9815632E-1,9.747105E-1,-2.2655863E-1,-4.7219522E-2,4.317337E-1,-5.801528E-1,4.6247843E-1,6.582453E-2,-1.2264519E-2,1.5531957E-1,-3.7840456E-1,-1.286846E-3,-2.513214E-2,-1.7867254E-2,2.901569E-2,-5.0111145E-2,2.6421437E-2,4.17214E-2,1.472228E-2,-1.550912E-2,3.0951535E-2,-3.42898E-3,-2.708672E-2],"categories":[],"categories_nodes":[],"categories_segments":[],"categories_sizes":[],"default_left":[1,1,0,1,0,0,0,1,0,0,0,0,0,0,0,0,0,0,0,0,0,0,0,0,0,0,0],"id":48,"left_children":[1,3,5,7,9,11,13,15,17,19,21,-1,-1,23,25,-1,-1,-1,-1,-1,-1,-1,-1,-1,-1,-1,-1],"loss_changes":[2.689751E0,1.2607616E1,9.857245E0,7.646363E0,5.2582493E0,3.3820944E0,5.992212E0,6.3993244E0,4.325028E0,3.0261219E0,4.4393997E0,0E0,0E0,6.629018E0,3.6824036E0,0E0,0E0,0E0,0E0,0E0,0E0,0E0,0E0,0E0,0E0,0E0,0E0],"parents":[2147483647,0,0,1,1,2,2,3,3,4,4,5,5,6,6,7,7,8,8,9,9,10,10,13,13,14,14],"right_children":[2,4,6,8,10,12,14,16,18,20,22,-1,-1,24,26,-1,-1,-1,-1,-1,-1,-1,-1,-1,-1,-1,-1],"split_conditions":[1.1628638E2,1.14519806E2,1.0548472E2,5.992707E-1,1.0195562E2,1.1957471E2,2.25E2,1.1674771E2,-5.5E0,1.03E1,1.5E0,6.582453E-2,-1.2264519E-2,6E-1,-3.4E0,-1.286846E-3,-2.513214E-2,-1.7867254E-2,2.901569E-2,-5.0111145E-2,2.6421437E-2,4.17214E-2,1.472228E-2,-1.550912E-2,3.0951535E-2,-3.42898E-3,-2.708672E-2],"split_indices":[7,7,21,11,20,7,28,6,15,15,3,0,0,12,14,0,0,0,0,0,0,0,0,0,0,0,0],"split_type":[0,0,0,0,0,0,0,0,0,0,0,0,0,0,0,0,0,0,0,0,0,0,0,0,0,0,0],"sum_hessian":[8.7448334E2,7.6682245E2,1.0766084E2,6.885251E2,7.8297386E1,6.3366413E0,1.013242E2,6.5440393E2,3.412116E1,4.3355923E0,7.39618E1,4.8881497E0,1.4484916E0,2.8820494E1,7.250371E1,6.259347E2,2.8469223E1,5.1841464E0,2.8937012E1,3.2095587E0,1.1260335E0,2.1781479E1,5.2180317E1,1.45477E1,1.4272795E1,2.5517925E1,4.6985783E1],"tree_param":{"num_deleted":"0","num_feature":"29","num_nodes":"27","size_leaf_vector":"1"}},{"base_weights":[-1.9897839E-4,3.6254402E-3,-7.8593075E-1,-9.890072E-3,2.373284E-1,-3.6712063E-3,-5.2262284E-2,3.619342E-3,-3.040978E-1,1.0286507E-1,1.0052383E0,8.7263325E-4,-1.7424237E-2,1.630227E-2,-2.7578354E-2,-1.0993262E-2,3.2726854E-2,6.301876E-2,-7.451992E-3],"categories":[],"categories_nodes":[],"categories_segments":[],"categories_sizes":[],"default_left":[1,0,0,0,1,0,0,1,0,1,0,0,0,0,0,0,0,0,0],"id":49,"left_children":[1,3,5,7,9,-1,-1,11,13,15,17,-1,-1,-1,-1,-1,-1,-1,-1],"loss_changes":[2.6326911E0,2.7564108E0,7.0733094E-1,3.2809706E0,4.8227425E0,0E0,0E0,3.8538566E0,5.831189E0,7.570576E0,2.2478805E0,0E0,0E0,0E0,0E0,0E0,0E0,0E0,0E0],"parents":[2147483647,0,0,1,1,2,2,3,3,4,4,7,7,8,8,9,9,10,10],"right_children":[2,4,6,8,10,-1,-1,12,14,16,18,-1,-1,-1,-1,-1,-1,-1,-1],"split_conditions":[1.92E2,4E0,5.6856894E-1,2.395E2,1.1619017E2,-3.6712063E-3,-5.2262284E-2,1.1894092E2,1.1150492E2,1.12674995E2,5.9799796E-1,8.7263325E-4,-1.7424237E-2,1.630227E-2,-2.7578354E-2,-1.0993262E-2,3.2726854E-2,6.301876E-2,-7.451992E-3],"split_indices":[16,4,10,28,21,0,0,21,9,18,22,0,0,0,0,0,0,0,0],"split_type":[0,0,0,0,0,0,0,0,0,0,0,0,0,0,0,0,0,0,0],"sum_hessian":[8.741649E2,8.709212E2,3.243678E0,8.24213E2,4.6708218E1,1.2079102E0,2.035768E0,7.889727E2,3.5240307E1,4.0713173E1,5.995044E0,7.6006213E2,2.8910578E1,9.847532E0,2.5392775E1,2.6065947E1,1.4647225E1,4.8345237E0,1.1605203E0],"tree_param":{"num_deleted":"0","num_feature":"29","num_nodes":"19","size_leaf_vector":"1"}},{"base_weights":[-1.9571987E-4,-6.2963456E-1,4.5623775E-3,1.1848137E-2,-9.8697037E-1,4.3713272E-1,-3.54782E-3,-7.385546E-3,-6.1395396E-2,-4.4423018E-2,6.0220623E-1,3.0332574E-1,-1.4881436E-2,-1.2175834E-2,4.4061102E-2,2.6379231E-2,-2.512653E-2,1.6636176E-2,-1.4089396E-3],"categories":[],"categories_nodes":[],"categories_segments":[],"categories_sizes":[],"default_left":[0,0,0,0,0,0,0,0,0,0,0,0,0,0,0,0,0,0,0],"id":50,"left_children":[1,3,5,-1,7,9,11,-1,-1,-1,13,15,17,-1,-1,-1,-1,-1,-1],"loss_changes":[2.6232307E0,2.2688189E0,3.0514646E0,0E0,7.986212E-1,4.037819E0,2.9759388E0,0E0,0E0,0E0,3.7142487E0,5.7728186E0,3.8221385E0,0E0,0E0,0E0,0E0,0E0,0E0],"parents":[2147483647,0,0,1,1,2,2,4,4,5,5,6,6,10,10,11,11,12,12],"right_children":[2,4,6,-1,8,10,12,-1,-1,-1,14,16,18,-1,-1,-1,-1,-1,-1],"split_conditions":[-2.02E1,5.062737E-1,5.1833427E-1,1.1848137E-2,-1.76E1,-1.89E1,9.981385E1,-7.385546E-3,-6.1395396E-2,-4.4423018E-2,1.04599014E2,1.1215743E2,-1.17E1,-1.2175834E-2,4.4061102E-2,2.6379231E-2,-2.512653E-2,1.6636176E-2,-1.4089396E-3],"split_indices":[2,10,11,0,3,3,8,0,0,0,8,6,15,0,0,0,0,0,0],"split_type":[0,0,0,0,0,0,0,0,0,0,0,0,0,0,0,0,0,0,0],"sum_hessian":[8.739309E2,5.5714107E0,8.683595E2,1.7249614E0,3.8464494E0,1.5007571E1,8.533519E2,1.2177433E0,2.628706E0,1.1766318E0,1.3830939E1,2.9476301E1,8.238756E2,3.462626E0,1.0368314E1,2.3329367E1,6.1469345E0,2.9470417E1,7.944052E2],"tree_param":{"num_deleted":"0","num_feature":"29","num_nodes":"19","size_leaf_vector":"1"}},{"base_weights":[-2.4663328E-4,-3.8613117E-1,7.250876E-3,-5.495473E-1,3.825778E-2,5.2460784E-1,-1.0480531E-3,-1.0529458E-1,-1.1320962E0,-2.34047E-1,8.0786043E-1,-7.1153593E-1,3.750848E-3,-4.1370813E-2,2.8097251E-2,-1.0239645E-2,-6.764317E-2,2.1975083E-2,-5.469755E-2,1.127632E-2,6.390696E-2,1.623949E-2,-5.3050306E-2,5.724887E-3,-1.4204653E-3],"categories":[],"categories_nodes":[],"categories_segments":[],"categories_sizes":[],"default_left":[0,0,0,0,0,0,0,0,0,0,0,0,0,0,0,0,0,0,0,0,0,0,0,0,0],"id":51,"left_children":[1,3,5,7,-1,9,11,13,15,17,19,21,23,-1,-1,-1,-1,-1,-1,-1,-1,-1,-1,-1,-1],"loss_changes":[2.5336027E0,3.5605984E0,3.6889298E0,3.8139672E0,0E0,3.103991E0,2.888845E0,5.1506963E0,1.0480595E0,3.0657282E0,2.478158E0,2.403304E0,3.001476E0,0E0,0E0,0E0,0E0,0E0,0E0,0E0,0E0,0E0,0E0,0E0,0E0],"parents":[2147483647,0,0,1,1,2,2,3,3,5,5,6,6,7,7,8,8,9,9,10,10,11,11,12,12],"right_children":[2,4,6,8,-1,10,12,14,16,18,20,22,24,-1,-1,-1,-1,-1,-1,-1,-1,-1,-1,-1,-1],"split_conditions":[-1.41E1,6.1566156E-1,5.1833427E-1,4E0,3.825778E-2,1.04599014E2,9.677891E1,5E-1,5.487738E-1,6E-1,9E-1,-1.2E0,1.060568E2,-4.1370813E-2,2.8097251E-2,-1.0239645E-2,-6.764317E-2,2.1975083E-2,-5.469755E-2,1.127632E-2,6.390696E-2,1.623949E-2,-5.3050306E-2,5.724887E-3,-1.4204653E-3],"split_indices":[3,22,11,24,0,8,6,13,22,13,15,14,8,0,0,0,0,0,0,0,0,0,0,0,0],"split_type":[0,0,0,0,0,0,0,0,0,0,0,0,0,0,0,0,0,0,0,0,0,0,0,0,0],"sum_hessian":[8.7374994E2,1.5690383E1,8.580595E2,1.4197785E1,1.4925975E0,1.2564619E1,8.4549493E2,8.724906E0,5.4728794E0,3.4630394E0,9.101581E0,4.6844277E0,8.408105E2,4.074841E0,4.6500654E0,1.423077E0,4.0498023E0,2.2160995E0,1.2469398E0,4.7273645E0,4.3742156E0,1.1991289E0,3.485299E0,1.886419E2,6.521686E2],"tree_param":{"num_deleted":"0","num_feature":"29","num_nodes":"25","size_leaf_vector":"1"}},{"base_weights":[-2.853003E-4,7.76315E-3,-3.5221285E-1,-5.9110397E-3,3.2108986E-1,-9.075714E-1,-8.648816E-3,-1.425151E-2,5.545078E-1,-6.16837E-2,6.5574443E-1,-1.1517103E0,-7.4413413E-4,4.7624215E-1,-4.68636E-1,3.1226937E-4,-1.32114235E-2,4.8930734E-2,-2.5986237E-2,3.6874175E-2,-2.727032E-2,6.370948E-3,5.0473254E-2,-6.3142456E-2,-1.5708264E-2,5.7680167E-2,-3.1668633E-2,-3.942293E-2,2.4619212E-2],"categories":[],"categories_nodes":[],"categories_segments":[],"categories_sizes":[],"default_left":[1,1,0,1,0,0,0,1,0,0,0,0,0,0,0,0,0,0,0,0,0,0,0,0,0,0,0,0,0],"id":52,"left_children":[1,3,5,7,9,11,13,15,17,19,21,23,-1,25,27,-1,-1,-1,-1,-1,-1,-1,-1,-1,-1,-1,-1,-1,-1],"loss_changes":[2.4799943E0,3.6694944E0,3.727271E0,3.846334E0,4.628128E0,1.6113577E0,3.1458929E0,4.1525836E0,6.0064106E0,7.2136974E0,3.4583626E0,1.4821005E-1,0E0,5.8981037E0,2.6099734E0,0E0,0E0,0E0,0E0,0E0,0E0,0E0,0E0,0E0,0E0,0E0,0E0,0E0,0E0],"parents":[2147483647,0,0,1,1,2,2,3,3,4,4,5,5,6,6,7,7,8,8,9,9,10,10,11,11,13,13,14,14],"right_children":[2,4,6,8,10,12,14,16,18,20,22,24,-1,26,28,-1,-1,-1,-1,-1,-1,-1,-1,-1,-1,-1,-1,-1,-1],"split_conditions":[1.2043184E2,6.142638E-1,2E0,1.21498314E2,1.1777458E2,1.14558784E2,6.32616E-1,1.1632185E2,1.1444696E2,1.1583388E2,1.11222176E2,1.23733246E2,-7.4413413E-4,1.13237434E2,9E-1,3.1226937E-4,-1.32114235E-2,4.8930734E-2,-2.5986237E-2,3.6874175E-2,-2.727032E-2,6.370948E-3,5.0473254E-2,-6.3142456E-2,-1.5708264E-2,5.7680167E-2,-3.1668633E-2,-3.942293E-2,2.4619212E-2],"split_indices":[19,23,24,18,19,8,23,19,9,19,9,19,0,8,13,0,0,0,0,0,0,0,0,0,0,0,0,0,0],"split_type":[0,0,0,0,0,0,0,0,0,0,0,0,0,0,0,0,0,0,0,0,0,0,0,0,0,0,0,0,0],"sum_hessian":[8.7359314E2,8.5501715E2,1.857598E1,8.2020306E2,3.4814125E1,6.472227E0,1.2103753E1,8.091356E2,1.1067443E1,1.662003E1,1.8194098E1,4.8544407E0,1.6177862E0,5.8751664E0,6.2285867E0,7.487193E2,6.0416332E1,7.998605E0,3.0688384E0,6.0688953E0,1.0551134E1,7.841731E0,1.0352366E1,3.837431E0,1.01701E0,3.6235425E0,2.2516239E0,4.8080525E0,1.420534E0],"tree_param":{"num_deleted":"0","num_feature":"29","num_nodes":"29","size_leaf_vector":"1"}},{"base_weights":[-2.6215566E-4,3.4236882E-3,-7.640136E-1,-6.758209E-4,7.1516645E-1,-5.1029135E-2,-3.106208E-3,1.4148849E-2,-2.471634E-1,5.242565E-2,-3.0535036E-3,-5.032068E-4,1.51171265E-2,3.8238738E-2,-1.7913802E-2],"categories":[],"categories_nodes":[],"categories_segments":[],"categories_sizes":[],"default_left":[1,1,0,1,0,0,0,1,1,0,0,0,0,0,0],"id":53,"left_children":[1,3,5,7,9,-1,-1,11,13,-1,-1,-1,-1,-1,-1],"loss_changes":[2.464013E0,2.5423536E0,6.9364095E-1,3.1722248E0,1.3552077E0,0E0,0E0,5.717497E0,5.8116465E0,0E0,0E0,0E0,0E0,0E0,0E0],"parents":[2147483647,0,0,1,1,2,2,3,3,4,4,7,7,8,8],"right_children":[2,4,6,8,10,-1,-1,12,14,-1,-1,-1,-1,-1,-1],"split_conditions":[1.92E2,2.08E1,5.888609E-1,1.2E1,1.05819016E2,-5.1029135E-2,-3.106208E-3,8E-1,1.0241275E2,5.242565E-2,-3.0535036E-3,-5.032068E-4,1.51171265E-2,3.8238738E-2,-1.7913802E-2],"split_indices":[16,14,22,14,21,0,0,13,7,0,0,0,0,0,0],"split_type":[0,0,0,0,0,0,0,0,0,0,0,0,0,0,0],"sum_hessian":[8.733649E2,8.701611E2,3.2038567E0,8.6617114E2,3.9899378E0,2.0137124E0,1.1901442E0,8.1792096E2,4.8250175E1,2.5458746E0,1.4440633E0,7.554185E2,6.2502434E1,4.191745E0,4.4058434E1],"tree_param":{"num_deleted":"0","num_feature":"29","num_nodes":"15","size_leaf_vector":"1"}},{"base_weights":[-2.1357181E-4,2.3273017E-1,-1.1971626E-2,3.511137E-1,-8.5403544E-1,-2.212047E-1,1.4785053E-2,1.7354311E-1,1.2221613E0,6.301121E-3,-6.3182265E-2,8.636568E-1,-2.7188587E-1,6.680302E-2,8.959945E-3,1.5595776E-2,-3.1690653E-2,7.153686E-2,9.128585E-3,9.807019E-3,6.0923796E-2,-1.9400053E-2,1.3364272E-2,2.1618425E-3,-7.7219866E-3],"categories":[],"categories_nodes":[],"categories_segments":[],"categories_sizes":[],"default_left":[0,0,0,0,0,0,0,0,0,0,0,0,0,0,1,0,0,0,0,0,0,0,0,0,0],"id":54,"left_children":[1,3,5,7,9,11,13,15,17,-1,-1,19,21,-1,23,-1,-1,-1,-1,-1,-1,-1,-1,-1,-1],"loss_changes":[2.3970075E0,5.7100096E0,4.6671824E0,5.762805E0,1.9344716E0,5.4316125E0,5.680136E0,3.9126358E0,1.1212997E0,0E0,0E0,8.168583E-1,5.804615E0,0E0,4.136312E0,0E0,0E0,0E0,0E0,0E0,0E0,0E0,0E0,0E0,0E0],"parents":[2147483647,0,0,1,1,2,2,3,3,4,4,5,5,6,6,7,7,8,8,11,11,12,12,14,14],"right_children":[2,4,6,8,10,12,14,16,18,-1,-1,20,22,-1,24,-1,-1,-1,-1,-1,-1,-1,-1,-1,-1],"split_conditions":[2E-1,7.6E0,1.03904175E2,1.1511051E2,5.6944054E-1,1.5E0,1.0167702E2,5.675474E-1,1.1830781E2,6.301121E-3,-6.3182265E-2,-1.8E0,2.285E2,6.680302E-2,1.14544624E2,1.5595776E-2,-3.1690653E-2,7.153686E-2,9.128585E-3,9.807019E-3,6.0923796E-2,-1.9400053E-2,1.3364272E-2,2.1618425E-3,-7.7219866E-3],"split_indices":[13,3,18,7,10,27,19,22,8,0,0,2,28,0,21,0,0,0,0,0,0,0,0,0,0],"split_type":[0,0,0,0,0,0,0,0,0,0,0,0,0,0,0,0,0,0,0,0,0,0,0,0,0],"sum_hessian":[8.731336E2,4.105152E1,8.320821E2,3.7629395E1,3.4221263E0,9.351807E1,7.38564E2,3.2253475E1,5.3759165E0,1.2127532E0,2.209373E0,3.457932E0,9.0060135E1,2.2394536E0,7.363246E2,2.8058245E1,4.195232E0,4.1641903E0,1.2117258E0,1.7390571E0,1.7188748E0,7.433239E1,1.5727744E1,6.092546E2,1.27070015E2],"tree_param":{"num_deleted":"0","num_feature":"29","num_nodes":"25","size_leaf_vector":"1"}},{"base_weights":[-5.0646948E-5,-5.990397E-1,4.4424324E-3,1.19930245E-2,-9.497884E-1,1.1888414E-1,-2.1842515E-2,-6.8007642E-3,-5.9308667E-2,2.2689669E-1,-2.3471202E-1,-4.224474E-1,-1.7624118E-3,1.6421085E-3,2.4630507E-2,6.630937E-2,-1.780047E-2,-3.4701526E-2,4.3792576E-3,-2.5603783E-3,5.1245578E-3],"categories":[],"categories_nodes":[],"categories_segments":[],"categories_sizes":[],"default_left":[0,0,0,0,0,0,0,0,0,1,0,0,1,0,0,0,0,0,0,0,0],"id":55,"left_children":[1,3,5,-1,7,9,11,-1,-1,13,15,17,19,-1,-1,-1,-1,-1,-1,-1,-1],"loss_changes":[2.3544528E0,2.1443355E0,2.6146288E0,0E0,7.609768E-1,6.2535877E0,5.686429E0,0E0,0E0,6.422197E0,7.7573676E0,4.7345843E0,3.4808936E0,0E0,0E0,0E0,0E0,0E0,0E0,0E0,0E0],"parents":[2147483647,0,0,1,1,2,2,4,4,5,5,6,6,9,9,10,10,11,11,12,12],"right_children":[2,4,6,-1,8,10,12,-1,-1,14,16,18,20,-1,-1,-1,-1,-1,-1,-1,-1],"split_conditions":[-2.02E1,5.062737E-1,5.514445E-1,1.19930245E-2,-1.76E1,1.1313981E2,5.548338E-1,-6.8007642E-3,-5.9308667E-2,1.10184875E2,5.2367884E-1,1.1196283E2,5.899594E-1,1.6421085E-3,2.4630507E-2,6.630937E-2,-1.780047E-2,-3.4701526E-2,4.3792576E-3,-2.5603783E-3,5.1245578E-3],"split_indices":[2,10,11,0,3,9,11,0,0,19,23,8,22,0,0,0,0,0,0,0,0],"split_type":[0,0,0,0,0,0,0,0,0,0,0,0,0,0,0,0,0,0,0,0,0],"sum_hessian":[8.728479E2,5.513384E0,8.6733453E2,1.7187428E0,3.794641E0,1.6134288E2,7.0599164E2,1.2087667E0,2.5858743E0,1.2386448E2,3.74784E1,3.274188E1,6.7324976E2,7.223429E1,5.1630184E1,1.9861784E0,3.5492226E1,2.1129856E1,1.1612023E1,4.5700925E2,2.1624052E2],"tree_param":{"num_deleted":"0","num_feature":"29","num_nodes":"21","size_leaf_vector":"1"}},{"base_weights":[-5.8730417E-5,1.9385707E-2,-1.3764565E-1,-2.214608E-2,3.8054723E-1,9.38209E-1,-2.1308018E-1,-4.5290705E-2,4.103857E-1,7.970865E-1,2.18823E-1,6.875369E-2,-2.679154E-3,1.4985916E-1,-3.5749918E-1,-1.0073761E-3,-2.0388741E-2,-1.5495852E-2,2.7989829E-2,-2.2726504E-2,5.001999E-2,8.2039455E-4,4.379308E-2,-1.4836112E-2,2.9723933E-2,-3.0400276E-2,-7.883288E-3],"categories":[],"categories_nodes":[],"categories_segments":[],"categories_sizes":[],"default_left":[1,1,0,1,0,0,0,0,0,0,0,0,0,0,0,0,0,0,0,0,0,0,0,0,0,0,0],"id":56,"left_children":[1,3,5,7,9,11,13,15,17,19,21,-1,-1,23,25,-1,-1,-1,-1,-1,-1,-1,-1,-1,-1,-1,-1],"loss_changes":[2.3398354E0,1.150285E1,8.989035E0,6.908235E0,5.1533365E0,3.2283769E0,5.400846E0,5.9538646E0,3.9461951E0,5.987009E0,7.7456036E0,0E0,0E0,6.0822773E0,3.5721788E0,0E0,0E0,0E0,0E0,0E0,0E0,0E0,0E0,0E0,0E0,0E0,0E0],"parents":[2147483647,0,0,1,1,2,2,3,3,4,4,5,5,6,6,7,7,8,8,9,9,10,10,13,13,14,14],"right_children":[2,4,6,8,10,12,14,16,18,20,22,-1,-1,24,26,-1,-1,-1,-1,-1,-1,-1,-1,-1,-1,-1,-1],"split_conditions":[1.1628638E2,1.14519806E2,1.0548472E2,5.992707E-1,-4.6E0,1.1901328E2,2.25E2,2.365E2,-4.5E0,5.6232804E-1,1.1749211E2,6.875369E-2,-2.679154E-3,6E-1,1.1194685E2,-1.0073761E-3,-2.0388741E-2,-1.5495852E-2,2.7989829E-2,-2.2726504E-2,5.001999E-2,8.2039455E-4,4.379308E-2,-1.4836112E-2,2.9723933E-2,-3.0400276E-2,-7.883288E-3],"split_indices":[7,7,21,11,15,7,28,28,15,10,18,0,0,12,21,0,0,0,0,0,0,0,0,0,0,0,0],"split_type":[0,0,0,0,0,0,0,0,0,0,0,0,0,0,0,0,0,0,0,0,0,0,0,0,0,0,0],"sum_hessian":[8.726093E2,7.6531104E2,1.07298294E2,6.8722253E2,7.808851E1,6.2809787E0,1.0101732E2,6.5316705E2,3.405545E1,2.0740442E1,5.7348064E1,4.0920553E0,2.1889231E0,2.8743746E1,7.227357E1,6.117869E2,4.138013E1,5.665944E0,2.8389507E1,2.7256236E0,1.8014818E1,4.462525E1,1.2722813E1,1.4506187E1,1.4237559E1,3.1164251E1,4.1109318E1],"tree_param":{"num_deleted":"0","num_feature":"29","num_nodes":"27","size_leaf_vector":"1"}},{"base_weights":[6.725362E-5,7.9424335E-3,-3.4646717E-1,-4.929989E-3,3.035815E-1,-8.904332E-1,-1.110335E-2,-1.2802672E-2,5.27303E-1,-6.519182E-2,6.2660915E-1,-1.1284837E0,-1.1149142E-3,4.5895144E-1,-4.5612013E-1,3.583797E-4,-1.2821562E-2,4.6616137E-2,-2.47573E-2,3.483784E-2,-2.6164714E-2,5.9478376E-3,4.836773E-2,-6.175492E-2,-1.580645E-2,5.511102E-2,-3.0134534E-2,2.376303E-2,-3.8422238E-2],"categories":[],"categories_nodes":[],"categories_segments":[],"categories_sizes":[],"default_left":[1,1,0,1,0,0,0,1,0,0,0,0,0,0,0,0,0,0,0,0,0,0,0,0,0,0,0,0,0],"id":57,"left_children":[1,3,5,7,9,11,13,15,17,19,21,23,-1,25,27,-1,-1,-1,-1,-1,-1,-1,-1,-1,-1,-1,-1,-1,-1],"loss_changes":[2.3858469E0,